{"learner":{"attributes":{},"feature_names":["High_Potential","Performance","Gender","Job_Level","Time_in_Position","Compa_Ratio","Age","Service_Years","EN0009","EN0023","EN0106","EN0012","EN0041","EN0020","EN0151","EN0187","EN0014","EN0193","EN0015","EN0198","EN0095","EN0101","EN0224","EN0013","EN0028","EN0210","EN0021","EN0076","EN0112","EN0181","EN0230","EN0231","EN0232","EN0266","EN0022","EN0275","EN0415","EN0008","EN0024","EN0027","EN0026","EN0029","EN0002","EN0005","EN0092","EN0093","EN0094","EN0173","EN0322","EN0323","EN0330","EN0001","EN0004","EN0003","EN0006","EN0378","EN0379","EN0383","EN0031","EN0035","EN0036","EN0404","Brand","Career_Development","Collaboration","Customer_Focus","Decision_Making","Enabling_Infrastructure","HEART","Manager","Performance_Management","Rewards_Recognition","Safety","Senior_Leadership","Talent_Staffing","Work_Tasks","Work_Life_Balance","Engagement","Say","Stay","Strive"],"feature_types":["float","float","c","c","float","float","float","float","float","float","float","float","float","float","float","float","float","float","float","float","float","float","float","float","float","float","float","float","float","float","float","float","float","float","float","float","float","float","float","float","float","float","float","float","float","float","float","float","float","float","float","float","float","float","float","float","float","float","float","float","float","float","float","float","float","float","float","float","float","float","float","float","float","float","float","float","float","float","float","float","float"],"gradient_booster":{"model":{"gbtree_model_param":{"num_parallel_tree":"1","num_trees":"200"},"iteration_indptr":[0,1,2,3,4,5,6,7,8,9,10,11,12,13,14,15,16,17,18,19,20,21,22,23,24,25,26,27,28,29,30,31,32,33,34,35,36,37,38,39,40,41,42,43,44,45,46,47,48,49,50,51,52,53,54,55,56,57,58,59,60,61,62,63,64,65,66,67,68,69,70,71,72,73,74,75,76,77,78,79,80,81,82,83,84,85,86,87,88,89,90,91,92,93,94,95,96,97,98,99,100,101,102,103,104,105,106,107,108,109,110,111,112,113,114,115,116,117,118,119,120,121,122,123,124,125,126,127,128,129,130,131,132,133,134,135,136,137,138,139,140,141,142,143,144,145,146,147,148,149,150,151,152,153,154,155,156,157,158,159,160,161,162,163,164,165,166,167,168,169,170,171,172,173,174,175,176,177,178,179,180,181,182,183,184,185,186,187,188,189,190,191,192,193,194,195,196,197,198,199,200],"tree_info":[0,0,0,0,0,0,0,0,0,0,0,0,0,0,0,0,0,0,0,0,0,0,0,0,0,0,0,0,0,0,0,0,0,0,0,0,0,0,0,0,0,0,0,0,0,0,0,0,0,0,0,0,0,0,0,0,0,0,0,0,0,0,0,0,0,0,0,0,0,0,0,0,0,0,0,0,0,0,0,0,0,0,0,0,0,0,0,0,0,0,0,0,0,0,0,0,0,0,0,0,0,0,0,0,0,0,0,0,0,0,0,0,0,0,0,0,0,0,0,0,0,0,0,0,0,0,0,0,0,0,0,0,0,0,0,0,0,0,0,0,0,0,0,0,0,0,0,0,0,0,0,0,0,0,0,0,0,0,0,0,0,0,0,0,0,0,0,0,0,0,0,0,0,0,0,0,0,0,0,0,0,0,0,0,0,0,0,0,0,0,0,0,0,0,0,0,0,0,0,0],"trees":[{"base_weights":[-1.3634128E-2,1.3381841E0,-7.826105E-2,1.967211E0,-1.7308001E-3,2.138635E0,-6.4117245E-2,-7.475085E-2,1.0091921E0,-6.2034097E-2,2.2983005E0,2.1920812E0,-4.0165374E-1,2.3571007E0,-4.3133505E-2,-3.685051E-2,1.22547045E-1,8.594496E-2,-7.0700236E-2,2.4504697E0,1.3986458E0,1.2467828E-1,-3.280151E-2,1.0308303E-1,-4.968207E-2],"categories":[0,2,3],"categories_nodes":[12],"categories_segments":[0],"categories_sizes":[3],"default_left":[0,0,0,0,0,0,0,0,0,0,0,0,1,0,0,0,0,0,0,0,0,0,0,0,0],"id":0,"left_children":[1,3,-1,5,7,9,-1,-1,11,-1,13,15,17,19,-1,-1,-1,-1,-1,21,23,-1,-1,-1,-1],"loss_changes":[7.8330566E2,1.6862659E2,0E0,7.933435E1,9.99063E1,7.376251E1,0E0,0E0,6.7164566E1,0E0,2.6013672E1,1.9122139E1,4.3516403E1,5.708557E0,0E0,0E0,0E0,0E0,0E0,1.7183838E1,2.505977E1,0E0,0E0,0E0,0E0],"parents":[2147483647,0,0,1,1,3,3,4,4,5,5,8,8,10,10,11,11,12,12,13,13,19,19,20,20],"right_children":[2,4,-1,6,8,10,-1,-1,12,-1,14,16,18,20,-1,-1,-1,-1,-1,22,24,-1,-1,-1,-1],"split_conditions":[1E0,5E0,-7.826105E-2,1.806E1,3.21E0,7.43E1,-6.4117245E-2,-7.475085E-2,5E0,-6.2034097E-2,6E0,5E0,NaN,4.3333335E0,-4.3133505E-2,-3.685051E-2,1.22547045E-1,8.594496E-2,-7.0700236E-2,4.875E0,5E0,1.2467828E-1,-3.280151E-2,1.0308303E-1,-4.968207E-2],"split_indices":[1,51,0,7,4,5,0,0,72,0,32,57,3,74,0,0,0,0,0,69,9,0,0,0,0],"split_type":[0,0,0,0,0,0,0,0,0,0,0,0,1,0,0,0,0,0,0,0,0,0,0,0,0],"sum_hessian":[3.709285E2,1.9823088E2,1.7269762E2,1.3462987E2,6.3601006E1,1.2836261E2,6.2672524E0,2.553325E1,3.8067757E1,5.3387704E0,1.2302385E2,2.0426601E1,1.7641155E1,1.21166885E2,1.8569636E0,1.3927227E0,1.9033878E1,5.338771E0,1.2302384E1,1.0840026E2,1.2766625E1,1.07239655E2,1.1606023E0,1.0213301E1,2.553325E0],"tree_param":{"num_deleted":"0","num_feature":"81","num_nodes":"25","size_leaf_vector":"1"}},{"base_weights":[-1.4570023E-2,1.2500284E0,-7.6087214E-2,1.8233677E0,-2.2136585E-3,1.9791775E0,-6.2401034E-2,-7.2683476E-2,9.5018077E-1,-6.0390122E-2,2.1238902E0,2.0334985E0,-3.8324744E-1,2.177502E0,-4.2151745E-2,-3.723753E-2,1.1382655E-1,8.101436E-2,-6.876231E-2,1.4436053E0,2.287078E0,-5.170979E-2,9.508445E-2,1.1678826E-1,6.179555E-2],"categories":[0,2,3],"categories_nodes":[12],"categories_segments":[0],"categories_sizes":[3],"default_left":[0,0,0,0,0,0,0,0,0,0,0,0,1,0,0,0,0,0,0,0,0,0,0,0,0],"id":1,"left_children":[1,3,-1,5,7,9,-1,-1,11,-1,13,15,17,19,-1,-1,-1,-1,-1,21,23,-1,-1,-1,-1],"loss_changes":[7.1044867E2,1.4590726E2,0E0,6.983652E1,9.1338974E1,6.474902E1,0E0,0E0,5.8790775E1,0E0,2.2940125E1,1.7510353E1,4.001271E1,5.0618896E0,0E0,0E0,0E0,0E0,0E0,2.5417747E1,9.785156E-1,0E0,0E0,0E0,0E0],"parents":[2147483647,0,0,1,1,3,3,4,4,5,5,8,8,10,10,11,11,12,12,13,13,19,19,20,20],"right_children":[2,4,-1,6,8,10,-1,-1,12,-1,14,16,18,20,-1,-1,-1,-1,-1,22,24,-1,-1,-1,-1],"split_conditions":[1E0,5E0,-7.6087214E-2,1.806E1,3.21E0,7.43E1,-6.2401034E-2,-7.2683476E-2,5E0,-6.0390122E-2,6E0,5E0,NaN,2.93E0,-4.2151745E-2,-3.723753E-2,1.1382655E-1,8.101436E-2,-6.876231E-2,5E0,4.3333335E0,-5.170979E-2,9.508445E-2,1.1678826E-1,6.179555E-2],"split_indices":[1,51,0,7,4,5,0,0,72,0,32,80,3,4,0,0,0,0,0,47,74,0,0,0,0],"split_type":[0,0,0,0,0,0,0,0,0,0,0,0,1,0,0,0,0,0,0,0,0,0,0,0,0],"sum_hessian":[3.7021594E2,2.0133374E2,1.688822E2,1.3784906E2,6.348468E1,1.316942E2,6.1548634E0,2.4995674E1,3.8489006E1,5.2462707E0,1.2644792E2,2.097748E1,1.7511526E1,1.24613045E2,1.8348769E0,1.3971086E0,1.958037E1,5.4534707E0,1.2058056E1,1.8786703E1,1.0582634E2,2.6008315E0,1.6185871E1,9.945446E1,6.3718805E0],"tree_param":{"num_deleted":"0","num_feature":"81","num_nodes":"25","size_leaf_vector":"1"}},{"base_weights":[-1.4991816E-2,1.1756824E0,-7.412838E-2,1.7039483E0,-2.7021177E-3,1.847306E0,-6.080386E-2,-7.080289E-2,8.989019E-1,-5.8854558E-2,1.9801793E0,1.9001943E0,-3.6652258E-1,2.0297492E0,-4.1210804E-2,-3.695395E-2,1.0642457E-1,7.663197E-2,-6.698247E-2,1.3544441E0,2.1297276E0,8.928683E-2,-5.0901927E-2,1.08665965E-1,5.8525663E-2],"categories":[0,2,3,0,2,3],"categories_nodes":[12,19],"categories_segments":[0,3],"categories_sizes":[3,3],"default_left":[0,0,0,0,0,0,0,0,0,0,0,0,1,0,0,0,0,0,0,1,0,0,0,0,0],"id":2,"left_children":[1,3,-1,5,7,9,-1,-1,11,-1,13,15,17,19,-1,-1,-1,-1,-1,21,23,-1,-1,-1,-1],"loss_changes":[6.4757654E2,1.27725494E2,0E0,6.2132477E1,8.378165E1,5.7488037E1,0E0,0E0,5.1902805E1,0E0,2.0486023E1,1.5948082E1,3.688479E1,4.1884155E0,0E0,0E0,0E0,0E0,0E0,2.3243256E1,5.538025E-1,0E0,0E0,0E0,0E0],"parents":[2147483647,0,0,1,1,3,3,4,4,5,5,8,8,10,10,11,11,12,12,13,13,19,19,20,20],"right_children":[2,4,-1,6,8,10,-1,-1,12,-1,14,16,18,20,-1,-1,-1,-1,-1,22,24,-1,-1,-1,-1],"split_conditions":[1E0,5E0,-7.412838E-2,1.806E1,3.21E0,7.43E1,-6.080386E-2,-7.080289E-2,5E0,-5.8854558E-2,6E0,5E0,NaN,2.93E0,-4.1210804E-2,-3.695395E-2,1.0642457E-1,7.663197E-2,-6.698247E-2,NaN,4.3333335E0,8.928683E-2,-5.0901927E-2,1.08665965E-1,5.8525663E-2],"split_indices":[1,51,0,7,4,5,0,0,72,0,32,74,3,4,0,0,0,0,0,3,74,0,0,0,0],"split_type":[0,0,0,0,0,0,0,0,0,0,0,0,1,0,0,0,0,0,0,1,0,0,0,0,0],"sum_hessian":[3.6805255E2,2.0323894E2,1.6481363E2,1.4009117E2,6.3147762E1,1.3405463E2,6.0365434E0,2.4424274E1,3.872349E1,5.1490707E0,1.2890556E2,2.137814E1,1.734535E1,1.2709351E2,1.8120518E0,1.3921506E0,1.9985989E1,5.546042E0,1.1799309E1,1.905709E1,1.0803642E2,1.6476376E1,2.5807142E0,1.0157744E2,6.458982E0],"tree_param":{"num_deleted":"0","num_feature":"81","num_nodes":"25","size_leaf_vector":"1"}},{"base_weights":[-1.5353574E-2,1.1114824E0,-7.235573E-2,1.6022077E0,-3.1915049E-3,1.7353704E0,-5.9311967E-2,-6.908462E-2,8.5393506E-1,-5.7415266E-2,1.858612E0,1.3891493E0,-6.2260676E-2,1.9049479E0,-4.030772E-2,-5.251916E-2,1.7216073E0,8.503202E-1,1.9552658E0,-3.582103E-2,1.8819418E0,8.657105E-2,-4.959489E-2,6.89204E-2,1.0194357E-1,1.0418774E-1,5.1787775E-2],"categories":[],"categories_nodes":[],"categories_segments":[],"categories_sizes":[],"default_left":[0,0,0,0,0,0,0,0,0,0,0,0,0,0,0,0,0,0,0,0,0,0,0,0,0,0,0],"id":3,"left_children":[1,3,-1,5,7,9,-1,-1,11,-1,13,15,-1,17,-1,-1,19,21,23,-1,25,-1,-1,-1,-1,-1,-1],"loss_changes":[5.9246014E2,1.1274631E2,0E0,5.5718353E1,7.707156E1,5.1477783E1,0E0,0E0,4.7186203E1,0E0,1.846756E1,2.8862762E1,0E0,4.1193237E0,0E0,0E0,1.3409782E1,1.5898996E1,1.5598145E0,0E0,1.2841034E0,0E0,0E0,0E0,0E0,0E0,0E0],"parents":[2147483647,0,0,1,1,3,3,4,4,5,5,8,8,10,10,11,11,13,13,16,16,17,17,18,18,20,20],"right_children":[2,4,-1,6,8,10,-1,-1,12,-1,14,16,-1,18,-1,-1,20,22,24,-1,26,-1,-1,-1,-1,-1,-1],"split_conditions":[1E0,5E0,-7.235573E-2,1.806E1,3.21E0,7.43E1,-5.9311967E-2,-6.908462E-2,6E0,-5.7415266E-2,6E0,4.6666665E0,-6.2260676E-2,2.802E1,-4.030772E-2,-5.251916E-2,5E0,2.305E1,2.93E0,-3.582103E-2,5E0,8.657105E-2,-4.959489E-2,6.89204E-2,1.0194357E-1,1.0418774E-1,5.1787775E-2],"split_indices":[1,51,0,7,4,5,0,0,41,0,32,74,0,6,0,0,54,6,4,0,72,0,0,0,0,0,0],"split_type":[0,0,0,0,0,0,0,0,0,0,0,0,0,0,0,0,0,0,0,0,0,0,0,0,0,0,0],"sum_hessian":[3.6467313E2,2.041256E2,1.6054755E2,1.4150627E2,6.261932E1,1.3559274E2,5.9135275E0,2.382641E1,3.879291E1,5.0481377E0,1.305446E2,3.1343285E1,7.4496274E0,1.2875598E2,1.7886184E0,3.34522E0,2.7998064E1,7.1085167E0,1.2164747E2,1.3639153E0,2.6634148E1,4.9512873E0,2.1572292E0,1.8544458E1,1.0310301E2,1.9790556E1,6.8435926E0],"tree_param":{"num_deleted":"0","num_feature":"81","num_nodes":"27","size_leaf_vector":"1"}},{"base_weights":[-1.5873535E-2,1.0545014E0,-7.074531E-2,1.5140649E0,-5.136316E-3,1.6386906E0,-5.79135E-2,-6.7508176E-2,8.105037E-1,-5.606177E-2,1.7539113E0,1.3151813E0,-6.077817E-2,1.7975982E0,-3.9439797E-2,-5.1270038E-2,1.6283208E0,8.104701E-1,1.8441367E0,-3.5085313E-2,1.7802569E0,8.265969E-2,-4.8340302E-2,6.513756E-2,9.6128926E-2,9.85247E-2,4.915635E-2],"categories":[],"categories_nodes":[],"categories_segments":[],"categories_sizes":[],"default_left":[0,0,0,0,0,0,0,0,0,0,0,0,0,0,0,0,0,0,0,0,0,0,0,0,0,0,0],"id":4,"left_children":[1,3,-1,5,7,9,-1,-1,11,-1,13,15,-1,17,-1,-1,19,21,23,-1,25,-1,-1,-1,-1,-1,-1],"loss_changes":[5.434832E2,1.0045534E2,0E0,5.028363E1,7.088415E1,4.640869E1,0E0,0E0,4.2959038E1,0E0,1.6772797E1,2.624133E1,0E0,3.486267E0,0E0,0E0,1.2261444E1,1.4705746E1,1.323822E0,0E0,1.103241E0,0E0,0E0,0E0,0E0,0E0,0E0],"parents":[2147483647,0,0,1,1,3,3,4,4,5,5,8,8,10,10,11,11,13,13,16,16,17,17,18,18,20,20],"right_children":[2,4,-1,6,8,10,-1,-1,12,-1,14,16,-1,18,-1,-1,20,22,24,-1,26,-1,-1,-1,-1,-1,-1],"split_conditions":[1E0,5E0,-7.074531E-2,1.806E1,3.21E0,7.43E1,-5.79135E-2,-6.7508176E-2,6E0,-5.606177E-2,6E0,4.6666665E0,-6.077817E-2,2.802E1,-3.9439797E-2,-5.1270038E-2,5E0,2.305E1,2.93E0,-3.5085313E-2,5E0,8.265969E-2,-4.8340302E-2,6.513756E-2,9.6128926E-2,9.85247E-2,4.915635E-2],"split_indices":[1,51,0,7,4,5,0,0,41,0,32,74,0,6,0,0,54,6,4,0,72,0,0,0,0,0,0],"split_type":[0,0,0,0,0,0,0,0,0,0,0,0,0,0,0,0,0,0,0,0,0,0,0,0,0,0,0],"sum_hessian":[3.60374E2,2.0424155E2,1.5613245E2,1.4224844E2,6.19931E1,1.3646153E2,5.786908E0,2.3208527E1,3.8784573E1,4.944329E0,1.3151721E2,3.1500118E1,7.2844543E0,1.2975252E2,1.7646947E0,3.2873101E0,2.8212809E1,7.1200404E0,1.2263248E2,1.3494679E0,2.686334E1,4.9844966E0,2.1355438E0,1.8708426E1,1.0392405E2,1.9948881E1,6.9144597E0],"tree_param":{"num_deleted":"0","num_feature":"81","num_nodes":"27","size_leaf_vector":"1"}},{"base_weights":[-1.6359953E-2,1.0041631E0,-6.927705E-2,1.1941652E0,-6.5050475E-2,1.358098E0,-6.284325E-2,-6.1277356E-2,1.4962815E0,1.5394406E0,-4.7146335E-2,-4.4418223E-2,1.5844665E0,8.101735E-2,-4.4237502E-2],"categories":[],"categories_nodes":[],"categories_segments":[],"categories_sizes":[],"default_left":[0,0,0,0,0,0,0,0,0,0,0,0,0,0,0],"id":5,"left_children":[1,3,-1,5,-1,7,-1,-1,9,11,-1,-1,13,-1,-1],"loss_changes":[4.999239E2,9.164143E1,0E0,7.8506744E1,0E0,6.619336E1,0E0,0E0,1.9899536E1,2.0296906E1,0E0,0E0,1.663678E1,0E0,0E0],"parents":[2147483647,0,0,1,1,3,3,5,5,8,8,9,9,12,12],"right_children":[2,4,-1,6,-1,8,-1,-1,10,12,-1,-1,14,-1,-1],"split_conditions":[1E0,1.806E1,-6.927705E-2,5.375E0,-6.5050475E-2,7.26E1,-6.284325E-2,-6.1277356E-2,6E0,2.65E0,-4.7146335E-2,-4.4418223E-2,5.5E1,8.101735E-2,-4.4237502E-2],"split_indices":[1,7,0,69,0,5,0,0,16,4,0,0,6,0,0],"split_type":[0,0,0,0,0,0,0,0,0,0,0,0,0,0,0],"sum_hessian":[3.552205E2,2.0360991E2,1.5161058E2,1.8876224E2,1.4847675E1,1.775467E2,1.121552E1,8.422579E0,1.6912413E2,1.6673749E2,2.3866441E0,2.5085928E0,1.642289E2,1.6240001E2,1.8288857E0],"tree_param":{"num_deleted":"0","num_feature":"81","num_nodes":"15","size_leaf_vector":"1"}},{"base_weights":[-1.7648881E-2,9.553152E-1,-6.793406E-2,1.3723024E0,-2.3459775E-2,1.4830357E0,-5.517552E-2,-6.543514E-2,7.3034215E-1,-5.37253E-2,1.5861212E0,1.1892959E0,-5.8650006E-2,1.6268035E0,-3.884082E-2,-5.0460257E-2,1.4819232E0,1.6929644E0,9.4816226E-1,-3.409804E-2,1.6229059E0,8.643714E-2,-3.7783995E-2,7.564597E-2,-5.3721238E-2,8.997439E-2,4.4566885E-2],"categories":[],"categories_nodes":[],"categories_segments":[],"categories_sizes":[],"default_left":[0,0,0,0,0,0,0,0,0,0,0,0,0,0,0,0,0,0,0,0,0,0,0,0,0,0,0],"id":6,"left_children":[1,3,-1,5,7,9,-1,-1,11,-1,13,15,-1,17,-1,-1,19,21,23,-1,25,-1,-1,-1,-1,-1,-1],"loss_changes":[4.598853E2,8.3687836E1,0E0,4.1438263E1,6.1437386E1,3.859778E1,0E0,0E0,3.6497215E1,0E0,1.4586304E1,2.307486E1,0E0,3.2307434E0,0E0,0E0,1.06286545E1,1.2192505E1,1.9098122E1,0E0,9.6603394E-1,0E0,0E0,0E0,0E0,0E0,0E0],"parents":[2147483647,0,0,1,1,3,3,4,4,5,5,8,8,10,10,11,11,13,13,16,16,17,17,18,18,20,20],"right_children":[2,4,-1,6,8,10,-1,-1,12,-1,14,16,-1,18,-1,-1,20,22,24,-1,26,-1,-1,-1,-1,-1,-1],"split_conditions":[1E0,5E0,-6.793406E-2,1.806E1,3.21E0,7.43E1,-5.517552E-2,-6.543514E-2,6E0,-5.37253E-2,6E0,4.6666665E0,-5.8650006E-2,4.3333335E0,-3.884082E-2,-5.0460257E-2,5E0,4.875E0,5E0,-3.409804E-2,5E0,8.643714E-2,-3.7783995E-2,7.564597E-2,-5.3721238E-2,8.997439E-2,4.4566885E-2],"split_indices":[1,51,0,7,4,5,0,0,41,0,32,74,0,74,0,0,54,69,9,0,72,0,0,0,0,0,0],"split_type":[0,0,0,0,0,0,0,0,0,0,0,0,0,0,0,0,0,0,0,0,0,0,0,0,0,0,0],"sum_hessian":[3.498922E2,2.0287366E2,1.4701857E2,1.4209135E2,6.0782295E1,1.3658469E2,5.5066776E0,2.2252666E1,3.852963E1,4.7415996E0,1.3184308E2,3.1527647E1,7.0019836E0,1.3009842E2,1.7446661E0,3.243563E0,2.8284084E1,1.1650377E2,1.3594647E1,1.3282065E0,2.6955877E1,1.1528882E2,1.214951E0,1.0970107E1,2.62454E0,1.9969343E1,6.9865336E0],"tree_param":{"num_deleted":"0","num_feature":"81","num_nodes":"27","size_leaf_vector":"1"}},{"base_weights":[-1.8546654E-2,9.1416043E-1,-6.670194E-2,1.0862666E0,-6.262759E-2,-6.0852338E-2,1.2332691E0,1.3576266E0,-5.816081E-2,5.380134E-1,1.4903954E0,1.3631696E0,-6.282534E-2,1.5268518E0,-4.5774575E-2,-4.806875E-2,8.451711E-2,7.777956E-2,-3.562237E-2],"categories":[],"categories_nodes":[],"categories_segments":[],"categories_sizes":[],"default_left":[0,0,0,0,0,0,0,0,0,0,0,0,0,0,0,0,0,0,0],"id":7,"left_children":[1,3,-1,5,-1,-1,7,9,-1,11,13,15,-1,17,-1,-1,-1,-1,-1],"loss_changes":[4.2460522E2,7.711432E1,0E0,6.561377E1,0E0,0E0,5.496933E1,1.694336E1,0E0,4.0457592E1,1.461496E1,1.6213585E1,0E0,1.0822937E1,0E0,0E0,0E0,0E0,0E0],"parents":[2147483647,0,0,1,1,3,3,6,6,7,7,9,9,10,10,11,11,13,13],"right_children":[2,4,-1,6,-1,-1,8,10,-1,12,14,16,-1,18,-1,-1,-1,-1,-1],"split_conditions":[1E0,1.806E1,-6.670194E-2,7.26E1,-6.262759E-2,-6.0852338E-2,5.375E0,2.93E0,-5.816081E-2,4E0,4E0,3E0,-6.282534E-2,9.47E1,-4.5774575E-2,-4.806875E-2,8.451711E-2,7.777956E-2,-3.562237E-2],"split_indices":[1,7,0,5,0,0,69,4,0,34,4,10,0,5,0,0,0,0,0],"split_type":[0,0,0,0,0,0,0,0,0,0,0,0,0,0,0,0,0,0,0],"sum_hessian":[3.434824E2,2.0109428E2,1.4238809E2,1.8698074E2,1.4113547E1,1.0569682E1,1.7641106E2,1.6832271E2,8.088355E0,2.460828E1,1.4371442E2,1.715832E1,7.44996E0,1.4212148E2,1.592944E0,1.7237805E0,1.5434539E1,1.4080763E2,1.3138477E0],"tree_param":{"num_deleted":"0","num_feature":"81","num_nodes":"19","size_leaf_vector":"1"}},{"base_weights":[-1.9647485E-2,8.749678E-1,-6.556838E-2,1.0389428E0,-6.139915E-2,-5.963431E-2,1.1788119E0,1.2970161E0,-5.7001512E-2,1.3358539E0,-4.5406774E-2,-4.1132983E-2,1.374492E0,7.03652E-2,-4.3119352E-2],"categories":[],"categories_nodes":[],"categories_segments":[],"categories_sizes":[],"default_left":[0,0,0,0,0,0,0,0,0,0,0,0,0,0,0],"id":8,"left_children":[1,3,-1,5,-1,-1,7,9,-1,11,-1,-1,13,-1,-1],"loss_changes":[3.9235245E2,7.066643E1,0E0,6.0039566E1,0E0,0E0,5.025261E1,1.6061157E1,0E0,1.5419373E1,0E0,0E0,1.3685699E1,0E0,0E0],"parents":[2147483647,0,0,1,1,3,3,6,6,7,7,9,9,12,12],"right_children":[2,4,-1,6,-1,-1,8,10,-1,12,-1,-1,14,-1,-1],"split_conditions":[1E0,1.806E1,-6.556838E-2,7.26E1,-6.139915E-2,-5.963431E-2,5.375E0,6E0,-5.7001512E-2,2.65E0,-4.5406774E-2,-4.1132983E-2,5.5E1,7.03652E-2,-4.3119352E-2],"split_indices":[1,7,0,5,0,0,69,16,0,4,0,0,6,0,0],"split_type":[0,0,0,0,0,0,0,0,0,0,0,0,0,0,0],"sum_hessian":[3.3693936E2,1.991928E2,1.3774655E2,1.8548145E2,1.371135E1,1.0279201E1,1.7520224E2,1.6733109E2,7.871156E0,1.6503065E2,2.3004296E0,2.3423288E0,1.6268832E2,1.6090344E2,1.784883E0],"tree_param":{"num_deleted":"0","num_feature":"81","num_nodes":"15","size_leaf_vector":"1"}},{"base_weights":[-2.0814985E-2,8.378367E-1,-6.452278E-2,1.2114723E0,-5.2820727E-2,1.3070252E0,-5.151681E-2,-6.3039534E-2,6.299583E-1,-5.05525E-2,1.3970022E0,1.0407038E0,-5.628827E-2,1.4350971E0,-3.827501E-2,-5.0087243E-2,1.3169482E0,5.4692453E-1,1.4788766E0,-3.2813307E-2,7.2385706E-2,6.770542E-2,-5.18865E-2,4.9288422E-2,7.770386E-2],"categories":[],"categories_nodes":[],"categories_segments":[],"categories_sizes":[],"default_left":[0,0,0,0,0,0,0,0,0,0,0,0,0,0,0,0,0,0,0,0,0,0,0,0,0],"id":9,"left_children":[1,3,-1,5,7,9,-1,-1,11,-1,13,15,-1,17,-1,-1,19,21,23,-1,-1,-1,-1,-1,-1],"loss_changes":[3.6290067E2,6.6400406E1,0E0,3.174887E1,5.033953E1,3.0012192E1,0E0,0E0,2.9426842E1,0E0,1.2295395E1,1.990229E1,0E0,3.4922485E0,0E0,0E0,8.87402E0,1.245755E1,1.9661255E0,0E0,0E0,0E0,0E0,0E0,0E0],"parents":[2147483647,0,0,1,1,3,3,4,4,5,5,8,8,10,10,11,11,13,13,16,16,17,17,18,18],"right_children":[2,4,-1,6,8,10,-1,-1,12,-1,14,16,-1,18,-1,-1,20,22,24,-1,-1,-1,-1,-1,-1],"split_conditions":[1E0,5E0,-6.452278E-2,1.806E1,3.21E0,7.43E1,-5.151681E-2,-6.3039534E-2,6E0,-5.05525E-2,6E0,4.6666665E0,-5.628827E-2,2.802E1,-3.827501E-2,-5.0087243E-2,5E0,2.305E1,2.93E0,-3.2813307E-2,7.2385706E-2,6.770542E-2,-5.18865E-2,4.9288422E-2,7.770386E-2],"split_indices":[1,51,0,7,4,5,0,0,41,0,32,74,0,6,0,0,36,6,4,0,0,0,0,0,0],"split_type":[0,0,0,0,0,0,0,0,0,0,0,0,0,0,0,0,0,0,0,0,0,0,0,0,0],"sum_hessian":[3.3028827E2,1.9717084E2,1.3311745E2,1.3878163E2,5.838921E1,1.3371501E2,5.0666165E0,2.0835348E1,3.755386E1,4.414329E0,1.2930067E2,3.096189E1,6.5919724E0,1.2758913E2,1.7115493E0,3.1898031E0,2.7772085E1,7.054192E0,1.20534935E2,1.2950536E0,2.6477032E1,4.8985915E0,2.1556005E0,1.8723131E1,1.01811806E2],"tree_param":{"num_deleted":"0","num_feature":"81","num_nodes":"25","size_leaf_vector":"1"}},{"base_weights":[-2.1497017E-2,8.064362E-1,-6.355597E-2,1.1653427E0,-5.4658823E-2,1.2572011E0,-5.0526243E-2,-6.1914694E-2,6.0259056E-1,-4.9547724E-2,1.3437476E0,1.3295779E0,-3.5677972E-1,1.3807946E0,-3.7483897E-2,-3.3160534E-2,7.524111E-2,5.6693114E-2,-6.1234683E-2,1.4445043E0,7.517196E-1,7.3976725E-2,-3.923376E-2,6.387466E-2,-5.3955603E-2],"categories":[0,2,3],"categories_nodes":[12],"categories_segments":[0],"categories_sizes":[3],"default_left":[0,0,0,0,0,0,0,0,0,0,0,0,1,0,0,0,0,0,0,0,0,0,0,0,0],"id":10,"left_children":[1,3,-1,5,7,9,-1,-1,11,-1,13,15,17,19,-1,-1,-1,-1,-1,21,23,-1,-1,-1,-1],"loss_changes":[3.3673132E2,6.080713E1,0E0,2.9295197E1,4.6625397E1,2.7704605E1,0E0,0E0,2.7575481E1,0E0,1.1462082E1,9.218971E0,2.422454E1,3.1990356E0,0E0,0E0,0E0,0E0,0E0,1.0523514E1,1.590562E1,0E0,0E0,0E0,0E0],"parents":[2147483647,0,0,1,1,3,3,4,4,5,5,8,8,10,10,11,11,12,12,13,13,19,19,20,20],"right_children":[2,4,-1,6,8,10,-1,-1,12,-1,14,16,18,20,-1,-1,-1,-1,-1,22,24,-1,-1,-1,-1],"split_conditions":[1E0,5E0,-6.355597E-2,1.806E1,3.21E0,7.43E1,-5.0526243E-2,-6.1914694E-2,5E0,-4.9547724E-2,6E0,5E0,NaN,4.3333335E0,-3.7483897E-2,-3.3160534E-2,7.524111E-2,5.6693114E-2,-6.1234683E-2,4.875E0,5E0,7.3976725E-2,-3.923376E-2,6.387466E-2,-5.3955603E-2],"split_indices":[1,51,0,7,4,5,0,0,72,0,32,80,3,74,0,0,0,0,0,69,9,0,0,0,0],"split_type":[0,0,0,0,0,0,0,0,0,0,0,0,1,0,0,0,0,0,0,0,0,0,0,0,0],"sum_hessian":[3.2286807E2,1.9434721E2,1.2852086E2,1.370663E2,5.728091E1,1.3213081E2,4.9354935E0,2.0192217E1,3.7088696E1,4.3067408E0,1.2782407E2,2.0973625E1,1.611507E1,1.2613679E2,1.687287E0,1.2986668E0,1.9674957E1,5.683163E0,1.0431908E1,1.127049E2,1.3431887E1,1.1148547E2,1.2194233E0,1.0834736E1,2.59715E0],"tree_param":{"num_deleted":"0","num_feature":"81","num_nodes":"25","size_leaf_vector":"1"}},{"base_weights":[-2.2140726E-2,7.781795E-1,-6.265996E-2,9.243222E-1,-5.8505733E-2,1.0486872E0,-5.673149E-2,-5.395321E-2,1.1471816E0,1.1876109E0,-4.525391E-2,-3.8176067E-2,1.2218518E0,6.260583E-2,-4.733285E-2],"categories":[],"categories_nodes":[],"categories_segments":[],"categories_sizes":[],"default_left":[0,0,0,0,0,0,0,0,0,0,0,0,0,0,0],"id":11,"left_children":[1,3,-1,5,-1,7,-1,-1,9,11,-1,-1,13,-1,-1],"loss_changes":[3.1298553E2,5.605597E1,0E0,4.7490158E1,0E0,3.7247055E1,0E0,0E0,1.4975952E1,1.2033737E1,0E0,0E0,1.1978897E1,0E0,0E0],"parents":[2147483647,0,0,1,1,3,3,5,5,8,8,9,9,12,12],"right_children":[2,4,-1,6,-1,8,-1,-1,10,12,-1,-1,14,-1,-1],"split_conditions":[1E0,1.806E1,-6.265996E-2,6E0,-5.8505733E-2,7.26E1,-5.673149E-2,-5.395321E-2,6E0,2.65E0,-4.525391E-2,-3.8176067E-2,4E0,6.260583E-2,-4.733285E-2],"split_indices":[1,7,0,31,0,5,0,0,16,4,0,0,4,0,0],"split_type":[0,0,0,0,0,0,0,0,0,0,0,0,0,0,0],"sum_hessian":[3.150663E2,1.9109245E2,1.2397386E2,1.7848915E2,1.2603288E1,1.6901505E2,9.4741125E0,6.8147516E0,1.622003E2,1.5970264E2,2.4976594E0,2.1692564E0,1.5753339E2,1.559997E2,1.5336788E0],"tree_param":{"num_deleted":"0","num_feature":"81","num_nodes":"15","size_leaf_vector":"1"}},{"base_weights":[-2.3308538E-2,7.480298E-1,-6.182775E-2,1.2474567E0,1.8501349E-1,1.3104538E0,-4.3114714E-2,-6.496948E-2,8.292272E-1,-3.706345E-2,1.3656938E0,1.0726368E0,-5.404974E-2,1.0648615E0,7.657209E-2,1.2010114E0,-4.637883E-2,-4.4805076E-2,1.1666629E0,-3.8450915E-2,1.3011504E0,2.2104718E-2,6.4331494E-2,-3.3192087E-2,6.828063E-2],"categories":[],"categories_nodes":[],"categories_segments":[],"categories_sizes":[],"default_left":[0,0,0,0,0,0,0,0,0,0,0,0,0,0,0,0,0,0,0,0,0,0,0,0,0],"id":12,"left_children":[1,3,-1,5,7,9,-1,-1,11,-1,13,15,-1,17,-1,19,-1,-1,21,-1,23,-1,-1,-1,-1],"loss_changes":[2.9055936E2,5.267411E1,0E0,1.4820129E1,8.809935E1,1.2499878E1,0E0,0E0,3.1312038E1,0E0,2.0864105E0,1.628048E1,0E0,9.090145E0,0E0,1.2213387E1,0E0,0E0,2.1083755E0,0E0,7.9998703E0,0E0,0E0,0E0,0E0],"parents":[2147483647,0,0,1,1,3,3,4,4,5,5,8,8,10,10,11,11,13,13,15,15,18,18,20,20],"right_children":[2,4,-1,6,8,10,-1,-1,12,-1,14,16,-1,18,-1,20,-1,-1,22,-1,24,-1,-1,-1,-1],"split_conditions":[1E0,3E0,-6.182775E-2,5.5E1,3.21E0,7.43E1,-4.3114714E-2,-6.496948E-2,1.4E1,-3.706345E-2,3E0,6E0,-5.404974E-2,2.93E0,7.657209E-2,7.26E1,-4.637883E-2,-4.4805076E-2,7.94E1,-3.8450915E-2,4E0,2.2104718E-2,6.4331494E-2,-3.3192087E-2,6.828063E-2],"split_indices":[1,79,0,6,4,5,0,0,7,0,49,26,0,4,0,5,0,0,5,0,19,0,0,0,0],"split_type":[0,0,0,0,0,0,0,0,0,0,0,0,0,0,0,0,0,0,0,0,0,0,0,0,0],"sum_hessian":[3.0786914E2,1.8837828E2,1.19490875E2,9.878599E1,8.959229E1,9.649667E1,2.2893147E0,2.6612404E1,6.2979885E1,2.0042827E0,9.449239E1,5.6463947E1,6.515937E0,3.7400185E1,5.709221E1,5.3645397E1,2.8185518E0,1.2432436E0,3.615694E1,2.070312E0,5.1575085E1,6.2640467E0,2.9892893E1,1.1458354E0,5.042925E1],"tree_param":{"num_deleted":"0","num_feature":"81","num_nodes":"25","size_leaf_vector":"1"}},{"base_weights":[-2.3994366E-2,7.233892E-1,-6.1053198E-2,1.0505667E0,-7.061251E-2,1.1304533E0,-5.1674064E-2,-5.94975E-2,5.2845985E-1,-4.699367E-2,1.2088153E0,1.2074518E0,-3.6264616E-1,1.2446507E0,-3.559282E-2,-3.2413017E-2,6.893229E-2,5.0620552E-2,-5.9500396E-2,1.2688537E0,-2.8852293E-2,6.651659E-2,3.348921E-2],"categories":[0,2,3],"categories_nodes":[12],"categories_segments":[0],"categories_sizes":[3],"default_left":[0,0,0,0,0,0,0,0,0,0,0,0,1,0,0,0,0,0,0,0,0,0,0],"id":13,"left_children":[1,3,-1,5,7,9,-1,-1,11,-1,13,15,17,19,-1,-1,-1,-1,-1,21,-1,-1,-1],"loss_changes":[2.7063116E2,4.8665924E1,0E0,2.3469177E1,3.7990936E1,2.2235107E1,0E0,0E0,2.2963991E1,0E0,9.767532E0,8.059139E0,2.0518764E1,6.4759827E0,0E0,0E0,0E0,0E0,0E0,2.8471375E0,0E0,0E0,0E0],"parents":[2147483647,0,0,1,1,3,3,4,4,5,5,8,8,10,10,11,11,12,12,13,13,19,19],"right_children":[2,4,-1,6,8,10,-1,-1,12,-1,14,16,18,20,-1,-1,-1,-1,-1,22,-1,-1,-1],"split_conditions":[1E0,5E0,-6.1053198E-2,5.5E1,3.21E0,7.43E1,-5.1674064E-2,-5.94975E-2,5E0,-4.699367E-2,5E0,5E0,NaN,6E0,-3.559282E-2,-3.2413017E-2,6.893229E-2,5.0620552E-2,-5.9500396E-2,4.3333335E0,-2.8852293E-2,6.651659E-2,3.348921E-2],"split_indices":[1,51,0,6,4,5,0,0,72,0,52,57,3,32,0,0,0,0,0,74,0,0,0],"split_type":[0,0,0,0,0,0,0,0,0,0,0,0,1,0,0,0,0,0,0,0,0,0,0],"sum_hessian":[2.9986948E2,1.8478549E2,1.15083984E2,1.3079916E2,5.398634E1,1.2663678E2,4.162379E0,1.8536396E1,3.5449944E1,4.0008717E0,1.2263591E2,2.0026918E1,1.5423024E1,1.20949394E2,1.6865139E0,1.2739388E0,1.8752981E1,5.5752835E0,9.847741E0,1.1987335E2,1.076044E0,1.06954254E2,1.2919093E1],"tree_param":{"num_deleted":"0","num_feature":"81","num_nodes":"23","size_leaf_vector":"1"}},{"base_weights":[-2.4493422E-2,7.002712E-1,-6.0330894E-2,1.1696403E0,1.6733257E-1,1.2296314E0,-4.118703E-2,-6.331926E-2,7.7665454E-1,-3.547341E-2,1.2821763E0,1.0051951E0,-5.2171376E-2,9.8082083E-1,7.250192E-2,1.1275352E0,-4.5026112E-2,-4.5346122E-2,1.0838426E0,-3.7311316E-2,1.223889E0,1.8783525E-2,6.0212042E-2,-3.2153904E-2,6.4341545E-2],"categories":[],"categories_nodes":[],"categories_segments":[],"categories_sizes":[],"default_left":[0,0,0,0,0,0,0,0,0,0,0,0,0,0,0,0,0,0,0,0,0,0,0,0,0],"id":14,"left_children":[1,3,-1,5,7,9,-1,-1,11,-1,13,15,-1,17,-1,19,-1,-1,21,-1,23,-1,-1,-1,-1],"loss_changes":[2.5235036E2,4.504654E1,0E0,1.29104E1,7.721642E1,1.0891235E1,0E0,0E0,2.7106022E1,0E0,2.2891235E0,1.4352707E1,0E0,8.557152E0,0E0,1.0862648E1,0E0,0E0,2.127037E0,0E0,7.209648E0,0E0,0E0,0E0,0E0],"parents":[2147483647,0,0,1,1,3,3,4,4,5,5,8,8,10,10,11,11,13,13,15,15,18,18,20,20],"right_children":[2,4,-1,6,8,10,-1,-1,12,-1,14,16,-1,18,-1,20,-1,-1,22,-1,24,-1,-1,-1,-1],"split_conditions":[1E0,3E0,-6.0330894E-2,5.5E1,3.21E0,7.43E1,-4.118703E-2,-6.331926E-2,1.4E1,-3.547341E-2,3E0,6E0,-5.2171376E-2,2.93E0,7.250192E-2,7.26E1,-4.5026112E-2,-4.5346122E-2,7.94E1,-3.7311316E-2,4E0,1.8783525E-2,6.0212042E-2,-3.2153904E-2,6.4341545E-2],"split_indices":[1,79,0,6,4,5,0,0,7,0,49,26,0,4,0,5,0,0,5,0,19,0,0,0,0],"split_type":[0,0,0,0,0,0,0,0,0,0,0,0,0,0,0,0,0,0,0,0,0,0,0,0,0],"sum_hessian":[2.919091E2,1.8114594E2,1.1076317E2,9.527392E1,8.587201E1,9.3077095E1,2.1968236E0,2.508633E1,6.078568E1,1.9177976E0,9.1159294E1,5.462379E1,6.161889E0,3.620506E1,5.495424E1,5.193158E1,2.6922097E0,1.243259E0,3.49618E1,2.0006256E0,4.9930954E1,6.130344E0,2.8831455E1,1.1231496E0,4.8807804E1],"tree_param":{"num_deleted":"0","num_feature":"81","num_nodes":"25","size_leaf_vector":"1"}},{"base_weights":[-2.522427E-2,6.7866397E-1,-5.9656013E-2,8.075397E-1,-5.523798E-2,-5.338174E-2,9.1671187E-1,1.0072627E0,-5.0526183E-2,6.090921E-1,1.224269E0,1.0970292E0,-6.341072E-2,1.2744962E0,-4.8991807E-2,-6.667755E-2,6.282909E-2,6.6045865E-2,2.2935405E-2],"categories":[3],"categories_nodes":[13],"categories_segments":[0],"categories_sizes":[1],"default_left":[0,0,0,0,0,0,0,0,0,0,0,0,0,1,0,0,0,0,0],"id":15,"left_children":[1,3,-1,5,-1,-1,7,9,-1,11,13,15,-1,17,-1,-1,-1,-1,-1],"loss_changes":[2.3548488E2,4.207418E1,0E0,3.544525E1,0E0,0E0,2.9009003E1,1.179155E1,0E0,5.364318E1,1.2384155E1,1.9831867E1,0E0,2.4176788E0,0E0,0E0,0E0,0E0,0E0],"parents":[2147483647,0,0,1,1,3,3,6,6,7,7,9,9,10,10,11,11,13,13],"right_children":[2,4,-1,6,-1,-1,8,10,-1,12,14,16,-1,18,-1,-1,-1,-1,-1],"split_conditions":[1E0,1.806E1,-5.9656013E-2,7.26E1,-5.523798E-2,-5.338174E-2,5.375E0,3.21E0,-5.0526183E-2,3E0,4E0,7.98E1,-6.341072E-2,NaN,-4.8991807E-2,-6.667755E-2,6.282909E-2,6.6045865E-2,2.2935405E-2],"split_indices":[1,7,0,5,0,0,69,4,0,79,4,5,0,3,0,0,0,0,0],"split_type":[0,0,0,0,0,0,0,0,0,0,0,0,0,1,0,0,0,0,0],"sum_hessian":[2.838165E2,1.7727989E2,1.0653661E2,1.6610109E2,1.1178806E1,8.408581E0,1.576925E2,1.5130966E2,6.382848E0,5.5460117E1,9.584954E1,4.4537056E1,1.0923061E1,9.434034E1,1.5091975E0,2.0803962E0,4.245666E1,8.8238815E1,6.101525E0],"tree_param":{"num_deleted":"0","num_feature":"81","num_nodes":"19","size_leaf_vector":"1"}},{"base_weights":[-2.6142739E-2,6.5785354E-1,-5.9024274E-2,7.8289545E-1,-5.4416686E-2,-5.2545965E-2,8.8884926E-1,9.767881E-1,-4.9715716E-2,5.889676E-1,1.1877258E0,1.0622053E0,-6.2113147E-2,1.23748E0,-4.782445E-2,-6.448584E-2,6.1008107E-2,6.417808E-2,2.2061182E-2],"categories":[3],"categories_nodes":[13],"categories_segments":[0],"categories_sizes":[1],"default_left":[0,0,0,0,0,0,0,0,0,0,0,0,0,1,0,0,0,0,0],"id":16,"left_children":[1,3,-1,5,-1,-1,7,9,-1,11,13,15,-1,17,-1,-1,-1,-1,-1],"loss_changes":[2.1983963E2,3.9117493E1,0E0,3.295662E1,0E0,0E0,2.6989922E1,1.0910339E1,0E0,4.975322E1,1.1703598E1,1.8642319E1,0E0,2.298172E0,0E0,0E0,0E0,0E0,0E0],"parents":[2147483647,0,0,1,1,3,3,6,6,7,7,9,9,10,10,11,11,13,13],"right_children":[2,4,-1,6,-1,-1,8,10,-1,12,14,16,-1,18,-1,-1,-1,-1,-1],"split_conditions":[1E0,1.806E1,-5.9024274E-2,7.26E1,-5.4416686E-2,-5.2545965E-2,5.375E0,3.21E0,-4.9715716E-2,3E0,4E0,7.98E1,-6.2113147E-2,NaN,-4.782445E-2,-6.448584E-2,6.1008107E-2,6.417808E-2,2.2061182E-2],"split_indices":[1,7,0,5,0,0,69,4,0,79,4,5,0,3,0,0,0,0,0],"split_type":[0,0,0,0,0,0,0,0,0,0,0,0,0,1,0,0,0,0,0],"sum_hessian":[2.7578595E2,1.7337506E2,1.02410904E2,1.6256664E2,1.080842E1,8.141869E0,1.5442476E2,1.4823688E2,6.187892E0,5.431012E1,9.392675E1,4.3682804E1,1.0627316E1,9.242726E1,1.4994897E0,2.0858755E0,4.1596928E1,8.635093E1,6.076334E0],"tree_param":{"num_deleted":"0","num_feature":"81","num_nodes":"19","size_leaf_vector":"1"}},{"base_weights":[-2.7067585E-2,6.382084E-1,-5.843186E-2,1.0737447E0,1.4050667E-1,1.1321484E0,-4.0404465E-2,-6.051317E-2,6.963683E-1,-3.276799E-2,1.1808912E0,9.063956E-1,-4.987766E-2,8.7889236E-1,6.759016E-2,1.0229672E0,-4.394046E-2,-4.476414E-2,9.8339397E-1,-3.4613192E-2,1.1115767E0,1.5476148E-2,5.509292E-2,-3.4091707E-2,5.8924723E-2],"categories":[],"categories_nodes":[],"categories_segments":[],"categories_sizes":[],"default_left":[0,0,0,0,0,0,0,0,0,0,0,0,0,0,0,0,0,0,0,0,0,0,0,0,0],"id":17,"left_children":[1,3,-1,5,7,9,-1,-1,11,-1,13,15,-1,17,-1,19,-1,-1,21,-1,23,-1,-1,-1,-1],"loss_changes":[2.0539276E2,3.649978E1,0E0,1.1177071E1,6.2004944E1,8.807678E0,0E0,0E0,2.1940157E1,0E0,2.4328384E0,1.2165054E1,0E0,7.693201E0,0E0,8.719349E0,0E0,0E0,1.9507866E0,0E0,6.9486465E0,0E0,0E0,0E0,0E0],"parents":[2147483647,0,0,1,1,3,3,4,4,5,5,8,8,10,10,11,11,13,13,15,15,18,18,20,20],"right_children":[2,4,-1,6,8,10,-1,-1,12,-1,14,16,-1,18,-1,20,-1,-1,22,-1,24,-1,-1,-1,-1],"split_conditions":[1E0,3E0,-5.843186E-2,5.5E1,3.21E0,7.43E1,-4.0404465E-2,-6.051317E-2,1.4E1,-3.276799E-2,3E0,6E0,-4.987766E-2,2.93E0,6.759016E-2,7.26E1,-4.394046E-2,-4.476414E-2,7.94E1,-3.4613192E-2,4E0,1.5476148E-2,5.509292E-2,-3.4091707E-2,5.8924723E-2],"split_indices":[1,79,0,6,4,5,0,0,7,0,49,26,0,4,0,5,0,0,5,0,19,0,0,0,0],"split_type":[0,0,0,0,0,0,0,0,0,0,0,0,0,0,0,0,0,0,0,0,0,0,0,0,0],"sum_hessian":[2.6779404E2,1.6940282E2,9.839123E1,8.930415E1,8.009866E1,8.722781E1,2.0763395E0,2.2791906E1,5.7306755E1,1.7663451E0,8.5461464E1,5.1633507E1,5.6732492E0,3.4189636E1,5.1271828E1,4.9101032E1,2.5324755E0,1.242575E0,3.2947063E1,1.8550684E0,4.7245964E1,5.9167337E0,2.7030329E1,1.1519213E0,4.609404E1],"tree_param":{"num_deleted":"0","num_feature":"81","num_nodes":"25","size_leaf_vector":"1"}},{"base_weights":[-2.7873792E-2,6.1993104E-1,-5.787533E-2,7.3866326E-1,-5.2990466E-2,-5.103838E-2,8.3920074E-1,9.2237586E-1,-4.8185535E-2,5.503304E-1,1.1236471E0,9.975745E-1,-5.9742697E-2,1.1743168E0,-4.766909E-2,-6.7457005E-2,5.749197E-2,6.2165868E-2,2.913682E-2],"categories":[],"categories_nodes":[],"categories_segments":[],"categories_sizes":[],"default_left":[0,0,0,0,0,0,0,0,0,0,0,0,0,0,0,0,0,0,0],"id":18,"left_children":[1,3,-1,5,-1,-1,7,9,-1,11,13,15,-1,17,-1,-1,-1,-1,-1],"loss_changes":[1.9208826E2,3.4125465E1,0E0,2.8704903E1,0E0,0E0,2.3420746E1,9.5203705E0,0E0,4.289074E1,1.1052177E1,1.7278275E1,0E0,2.2993164E0,0E0,0E0,0E0,0E0,0E0],"parents":[2147483647,0,0,1,1,3,3,6,6,7,7,9,9,10,10,11,11,13,13],"right_children":[2,4,-1,6,-1,-1,8,10,-1,12,14,16,-1,18,-1,-1,-1,-1,-1],"split_conditions":[1E0,1.806E1,-5.787533E-2,7.26E1,-5.2990466E-2,-5.103838E-2,5.375E0,3.21E0,-4.8185535E-2,3E0,4E0,3.108E1,-5.9742697E-2,5E0,-4.766909E-2,-6.7457005E-2,5.749197E-2,6.2165868E-2,2.913682E-2],"split_indices":[1,7,0,5,0,0,69,4,0,79,4,6,0,12,0,0,0,0,0],"split_type":[0,0,0,0,0,0,0,0,0,0,0,0,0,0,0,0,0,0,0],"sum_hessian":[2.5983453E2,1.6535306E2,9.448148E1,1.5522981E2,1.0123249E1,7.637831E0,1.4759198E2,1.417994E2,5.792582E0,5.1855526E1,8.994387E1,4.181754E1,1.0037987E1,8.8449745E1,1.4941245E0,1.8492537E0,3.9968285E1,7.759907E1,1.08506775E1],"tree_param":{"num_deleted":"0","num_feature":"81","num_nodes":"19","size_leaf_vector":"1"}},{"base_weights":[-2.8812204E-2,6.0202473E-1,-5.73516E-2,7.175834E-1,-5.2259833E-2,-5.0288707E-2,8.154901E-1,8.965723E-1,-4.7450352E-2,2.5337374E-1,1.0029551E0,8.596914E-1,-5.6758977E-2,1.0393277E0,-4.655495E-2,-5.499509E-2,6.420801E-2,5.3184755E-2,-2.9050326E-2],"categories":[],"categories_nodes":[],"categories_segments":[],"categories_sizes":[],"default_left":[0,0,0,0,0,0,0,0,0,0,0,0,0,0,0,0,0,0,0],"id":19,"left_children":[1,3,-1,5,-1,-1,7,9,-1,11,13,15,-1,17,-1,-1,-1,-1,-1],"loss_changes":[1.7968684E2,3.1811172E1,0E0,2.6767136E1,0E0,0E0,2.186087E1,8.937187E0,0E0,1.954934E1,9.624947E0,1.515999E1,0E0,5.542656E0,0E0,0E0,0E0,0E0,0E0],"parents":[2147483647,0,0,1,1,3,3,6,6,7,7,9,9,10,10,11,11,13,13],"right_children":[2,4,-1,6,-1,-1,8,10,-1,12,14,16,-1,18,-1,-1,-1,-1,-1],"split_conditions":[1E0,1.806E1,-5.73516E-2,7.26E1,-5.2259833E-2,-5.0288707E-2,5.375E0,2.93E0,-4.7450352E-2,4.230769E0,4E0,5E0,-5.6758977E-2,9.47E1,-4.655495E-2,-5.499509E-2,6.420801E-2,5.3184755E-2,-2.9050326E-2],"split_indices":[1,7,0,5,0,0,69,4,0,68,4,47,0,5,0,0,0,0,0],"split_type":[0,0,0,0,0,0,0,0,0,0,0,0,0,0,0,0,0,0,0],"sum_hessian":[2.5205843E2,1.6137383E2,9.06846E1,1.5159604E2,9.777793E0,7.3890643E0,1.4420697E2,1.385948E2,5.6121697E0,2.0603231E1,1.1799157E2,1.4797831E1,5.805401E0,1.16508E2,1.4835681E0,2.1756675E0,1.2622164E1,1.1535692E2,1.1510816E0],"tree_param":{"num_deleted":"0","num_feature":"81","num_nodes":"19","size_leaf_vector":"1"}},{"base_weights":[-3.0083222E-2,5.832135E-1,-5.6857895E-2,9.9516034E-1,1.11716114E-1,1.0521034E0,-3.902943E-2,-5.8530577E-2,6.283513E-1,-3.0873572E-2,1.0987307E0,8.2416624E-1,-4.798543E-2,7.921029E-1,6.3779235E-2,9.3619126E-1,-4.2742886E-2,-4.305448E-2,8.9737177E-1,-3.8762137E-2,1.0183234E0,5.079974E-2,1.00404E-2,-2.8354192E-2,5.4475814E-2],"categories":[0],"categories_nodes":[18],"categories_segments":[0],"categories_sizes":[1],"default_left":[0,0,0,0,0,0,0,0,0,0,0,0,0,0,0,0,0,0,1,0,0,0,0,0,0],"id":20,"left_children":[1,3,-1,5,7,9,-1,-1,11,-1,13,15,-1,17,-1,19,-1,-1,21,-1,23,-1,-1,-1,-1],"loss_changes":[1.6796753E2,3.045942E1,0E0,9.628334E0,5.1010025E1,7.38636E0,0E0,0E0,1.8055891E1,0E0,2.6016693E0,1.0381989E1,0E0,6.7824306E0,0E0,7.709278E0,0E0,0E0,2.0953903E0,0E0,6.0838737E0,0E0,0E0,0E0,0E0],"parents":[2147483647,0,0,1,1,3,3,4,4,5,5,8,8,10,10,11,11,13,13,15,15,18,18,20,20],"right_children":[2,4,-1,6,8,10,-1,-1,12,-1,14,16,-1,18,-1,20,-1,-1,22,-1,24,-1,-1,-1,-1],"split_conditions":[1E0,3E0,-5.6857895E-2,5.5E1,3.21E0,7.43E1,-3.902943E-2,-5.8530577E-2,1.4E1,-3.0873572E-2,3E0,6E0,-4.798543E-2,2.93E0,6.3779235E-2,4E0,-4.2742886E-2,-4.305448E-2,NaN,-3.8762137E-2,7.26E1,5.079974E-2,1.00404E-2,-2.8354192E-2,5.4475814E-2],"split_indices":[1,79,0,6,4,5,0,0,7,0,49,26,0,4,0,19,0,0,2,0,5,0,0,0,0],"split_type":[0,0,0,0,0,0,0,0,0,0,0,0,0,0,0,0,0,0,1,0,0,0,0,0,0],"sum_hessian":[2.4471257E2,1.5771008E2,8.700249E1,8.3146515E1,7.456357E1,8.119308E1,1.953441E0,2.0820158E1,5.374341E1,1.6444777E0,7.95486E1,4.8519444E1,5.2239633E0,3.2120525E1,4.742807E1,4.6142708E1,2.3767364E0,1.2434255E0,3.08771E1,1.4905561E0,4.4652153E1,2.5587486E1,5.2896147E0,1.3938489E0,4.3258305E1],"tree_param":{"num_deleted":"0","num_feature":"81","num_nodes":"25","size_leaf_vector":"1"}},{"base_weights":[-3.0973388E-2,5.671832E-1,-5.6391686E-2,9.699386E-1,1.0532525E-1,1.0263362E0,-3.828199E-2,-5.7768542E-2,6.073394E-1,-3.0333683E-2,1.0725656E0,7.981027E-1,-4.721436E-2,7.6727396E-1,6.253023E-2,9.0816754E-1,-4.1939974E-2,-4.2028483E-2,8.717773E-1,-3.794842E-2,9.8954123E-1,8.772391E-3,4.9594965E-2,-2.78622E-2,5.299701E-2],"categories":[],"categories_nodes":[],"categories_segments":[],"categories_sizes":[],"default_left":[0,0,0,0,0,0,0,0,0,0,0,0,0,0,0,0,0,0,0,0,0,0,0,0,0],"id":21,"left_children":[1,3,-1,5,7,9,-1,-1,11,-1,13,15,-1,17,-1,19,-1,-1,21,-1,23,-1,-1,-1,-1],"loss_changes":[1.5733635E2,2.842456E1,0E0,9.105461E0,4.7488506E1,6.999962E0,0E0,0E0,1.6826935E1,0E0,2.5787964E0,9.747507E0,0E0,6.430931E0,0E0,7.2904625E0,0E0,0E0,2.1283646E0,0E0,5.7556E0,0E0,0E0,0E0,0E0],"parents":[2147483647,0,0,1,1,3,3,4,4,5,5,8,8,10,10,11,11,13,13,15,15,18,18,20,20],"right_children":[2,4,-1,6,8,10,-1,-1,12,-1,14,16,-1,18,-1,20,-1,-1,22,-1,24,-1,-1,-1,-1],"split_conditions":[1E0,3E0,-5.6391686E-2,5.5E1,3.21E0,7.43E1,-3.828199E-2,-5.7768542E-2,1.4E1,-3.0333683E-2,3E0,6E0,-4.721436E-2,2.93E0,6.253023E-2,4E0,-4.1939974E-2,-4.2028483E-2,3.207E1,-3.794842E-2,7.26E1,8.772391E-3,4.9594965E-2,-2.78622E-2,5.299701E-2],"split_indices":[1,79,0,6,4,5,0,0,7,0,49,26,0,4,0,19,0,0,6,0,5,0,0,0,0],"split_type":[0,0,0,0,0,0,0,0,0,0,0,0,0,0,0,0,0,0,0,0,0,0,0,0,0],"sum_hessian":[2.3712515E2,1.5368889E2,8.3436264E1,8.107363E1,7.2615265E1,7.91563E1,1.9173278E0,2.0075447E1,5.253982E1,1.613106E0,7.75432E1,4.747163E1,5.068191E0,3.1525734E1,4.601746E1,4.514529E1,2.3263397E0,1.2406718E0,3.028506E1,1.4736248E0,4.3671665E1,5.2144747E0,2.5070587E1,1.3702128E0,4.2301453E1],"tree_param":{"num_deleted":"0","num_feature":"81","num_nodes":"25","size_leaf_vector":"1"}},{"base_weights":[-3.1884864E-2,5.5176353E-1,-5.595068E-2,8.181993E-1,-1.0359191E-1,8.8660675E-1,-4.5435883E-2,6.722152E-1,-7.5061303E-1,-3.9989438E-2,9.507454E-1,-4.422216E-2,5.307884E-2,2.696298E-1,-5.846681E-2,9.845964E-1,-4.264823E-2,-4.0882207E-2,4.981592E-2,1.0136995E0,-2.7356489E-2,5.2132845E-2,-2.763922E-2],"categories":[0,2,3],"categories_nodes":[8],"categories_segments":[0],"categories_sizes":[3],"default_left":[0,0,0,0,0,0,0,0,1,0,0,0,0,0,0,0,0,0,0,0,0,0,0],"id":22,"left_children":[1,3,-1,5,7,9,-1,11,13,-1,15,-1,-1,17,-1,19,-1,-1,-1,21,-1,-1,-1],"loss_changes":[1.4744568E2,2.6642754E1,0E0,1.3728622E1,2.2972816E1,1.2280556E1,0E0,1.3768073E1,1.13050165E1,0E0,7.2671585E0,0E0,0E0,7.479322E0,0E0,5.273964E0,0E0,0E0,0E0,5.3278503E0,0E0,0E0,0E0],"parents":[2147483647,0,0,1,1,3,3,4,4,5,5,7,7,8,8,10,10,13,13,15,15,19,19],"right_children":[2,4,-1,6,8,10,-1,12,14,-1,16,-1,-1,18,-1,20,-1,-1,-1,22,-1,-1,-1],"split_conditions":[1E0,5E0,-5.595068E-2,5.5E1,5E0,7.43E1,-4.5435883E-2,5E0,NaN,-3.9989438E-2,6E0,-4.422216E-2,5.307884E-2,6E0,-5.846681E-2,9.47E1,-4.264823E-2,-4.0882207E-2,4.981592E-2,6E0,-2.7356489E-2,5.2132845E-2,-2.763922E-2],"split_indices":[1,51,0,6,72,5,0,74,3,0,47,0,0,18,0,5,0,0,0,32,0,0,0],"split_type":[0,0,0,0,0,0,0,0,1,0,0,0,0,0,0,0,0,0,0,0,0,0,0],"sum_hessian":[2.296907E2,1.4970433E2,7.9986374E1,1.0648397E2,4.3220356E1,1.0315092E2,3.3330555E0,1.9456312E1,2.3764042E1,3.1112747E0,1.0003964E2,3.4463623E0,1.600995E1,6.870851E0,1.689319E1,9.889E1,1.1496478E0,2.5520234E0,4.318828E0,9.762114E1,1.2688605E0,9.641641E1,1.2047248E0],"tree_param":{"num_deleted":"0","num_feature":"81","num_nodes":"23","size_leaf_vector":"1"}},{"base_weights":[-3.3005025E-2,5.359838E-1,-5.5532783E-2,9.231172E-1,9.107109E-2,9.782813E-1,-3.670192E-2,-5.6833196E-2,5.7513684E-1,-2.911657E-2,1.023484E0,7.5661963E-1,-4.5621246E-2,7.1103436E-1,6.0464453E-2,-4.44397E-2,8.589109E-1,-4.186141E-2,8.173555E-1,9.44043E-1,-3.2842543E-2,6.2620104E-3,4.752122E-2,-2.686569E-2,5.0655242E-2],"categories":[],"categories_nodes":[],"categories_segments":[],"categories_sizes":[],"default_left":[0,0,0,0,0,0,0,0,0,0,0,0,0,0,0,0,0,0,0,0,0,0,0,0,0],"id":23,"left_children":[1,3,-1,5,7,9,-1,-1,11,-1,13,15,-1,17,-1,-1,19,-1,21,23,-1,-1,-1,-1,-1],"loss_changes":[1.3813475E2,2.4991516E1,0E0,8.113068E0,4.237702E1,6.2464676E0,0E0,0E0,1.4673491E1,0E0,2.7922897E0,8.782631E0,0E0,6.0290546E0,0E0,0E0,6.6033287E0,0E0,2.3656635E0,5.188938E0,0E0,0E0,0E0,0E0,0E0],"parents":[2147483647,0,0,1,1,3,3,4,4,5,5,8,8,10,10,11,11,13,13,16,16,18,18,19,19],"right_children":[2,4,-1,6,8,10,-1,-1,12,-1,14,16,-1,18,-1,-1,20,-1,22,24,-1,-1,-1,-1,-1],"split_conditions":[1E0,3E0,-5.5532783E-2,5.5E1,3.21E0,7.43E1,-3.670192E-2,-5.6833196E-2,1.4E1,-2.911657E-2,3E0,4E0,-4.5621246E-2,2.93E0,6.0464453E-2,-4.44397E-2,6E0,-4.186141E-2,7.94E1,7.26E1,-3.2842543E-2,6.2620104E-3,4.752122E-2,-2.686569E-2,5.0655242E-2],"split_indices":[1,79,0,6,4,5,0,0,7,0,49,19,0,4,0,0,26,0,5,5,0,0,0,0,0],"split_type":[0,0,0,0,0,0,0,0,0,0,0,0,0,0,0,0,0,0,0,0,0,0,0,0,0],"sum_hessian":[2.2258138E2,1.4592876E2,7.665262E1,7.701232E1,6.8916435E1,7.5172874E1,1.8394489E0,1.8865711E1,5.0050724E1,1.5422735E0,7.36306E1,4.5305695E1,4.7450304E0,3.0209425E1,4.3421173E1,1.9461234E0,4.335957E1,1.2379347E0,2.897149E1,4.1656372E1,1.7031983E0,5.3661833E0,2.3605307E1,1.3167737E0,4.03396E1],"tree_param":{"num_deleted":"0","num_feature":"81","num_nodes":"25","size_leaf_vector":"1"}},{"base_weights":[-3.3963107E-2,5.2162963E-1,-5.5136096E-2,9.0099347E-1,8.508656E-2,9.557784E-1,-3.6018696E-2,-5.614912E-2,5.5595815E-1,-2.861754E-2,1.0007352E0,7.3307616E-1,-4.491519E-2,6.890983E-1,5.9419256E-2,-4.3476548E-2,8.3420384E-1,-4.088637E-2,7.9473454E-1,9.1829973E-1,-3.226589E-2,4.604681E-2,4.5598904E-3,-2.6408484E-2,4.9337957E-2],"categories":[0],"categories_nodes":[18],"categories_segments":[0],"categories_sizes":[1],"default_left":[0,0,0,0,0,0,0,0,0,0,0,0,0,0,0,0,0,0,1,0,0,0,0,0,0],"id":24,"left_children":[1,3,-1,5,7,9,-1,-1,11,-1,13,15,-1,17,-1,-1,19,-1,21,23,-1,-1,-1,-1,-1],"loss_changes":[1.2955524E2,2.338805E1,0E0,7.6907616E0,3.949749E1,5.936035E0,0E0,0E0,1.3696243E1,0E0,2.7707596E0,8.277847E0,0E0,5.7217426E0,0E0,0E0,6.236025E0,0E0,2.2740688E0,4.9199905E0,0E0,0E0,0E0,0E0,0E0],"parents":[2147483647,0,0,1,1,3,3,4,4,5,5,8,8,10,10,11,11,13,13,16,16,18,18,19,19],"right_children":[2,4,-1,6,8,10,-1,-1,12,-1,14,16,-1,18,-1,-1,20,-1,22,24,-1,-1,-1,-1,-1],"split_conditions":[1E0,3E0,-5.5136096E-2,5.5E1,3.21E0,7.43E1,-3.6018696E-2,-5.614912E-2,1.4E1,-2.861754E-2,3E0,4E0,-4.491519E-2,2.93E0,5.9419256E-2,-4.3476548E-2,6E0,-4.088637E-2,NaN,7.26E1,-3.226589E-2,4.604681E-2,4.5598904E-3,-2.6408484E-2,4.9337957E-2],"split_indices":[1,79,0,6,4,5,0,0,7,0,49,19,0,4,0,0,26,0,2,5,0,0,0,0,0],"split_type":[0,0,0,0,0,0,0,0,0,0,0,0,0,0,0,0,0,0,1,0,0,0,0,0,0],"sum_hessian":[2.1547633E2,1.4204199E2,7.343433E1,7.4980225E1,6.706177E1,7.317502E1,1.8052067E0,1.817357E1,4.88882E1,1.513246E0,7.166177E1,4.428627E1,4.601931E0,2.9628792E1,4.2032986E1,1.9181765E0,4.236809E1,1.2339895E0,2.8394802E1,4.0697956E1,1.6701375E0,2.3447195E1,4.947607E0,1.294792E0,3.9403164E1],"tree_param":{"num_deleted":"0","num_feature":"81","num_nodes":"25","size_leaf_vector":"1"}},{"base_weights":[-3.494945E-2,5.076537E-1,-5.4758873E-2,8.7950385E-1,7.9196036E-2,9.33936E-1,-3.535353E-2,-5.5492133E-2,5.373464E-1,-2.812974E-2,9.7867143E-1,7.1028847E-1,-4.42264E-2,6.675097E-1,5.8430947E-2,-4.2548418E-2,8.102962E-1,-3.995085E-2,7.723977E-1,8.934152E-1,-3.1702686E-2,4.4511086E-3,4.540404E-2,-2.5961652E-2,4.8065823E-2],"categories":[],"categories_nodes":[],"categories_segments":[],"categories_sizes":[],"default_left":[0,0,0,0,0,0,0,0,0,0,0,0,0,0,0,0,0,0,0,0,0,0,0,0,0],"id":25,"left_children":[1,3,-1,5,7,9,-1,-1,11,-1,13,15,-1,17,-1,-1,19,-1,21,23,-1,-1,-1,-1,-1],"loss_changes":[1.2154519E2,2.189634E1,0E0,7.2935524E0,3.682642E1,5.643841E0,0E0,0E0,1.27896185E1,0E0,2.7612991E0,7.8048134E0,0E0,5.428712E0,0E0,0E0,5.8921814E0,0E0,2.3470898E0,4.667553E0,0E0,0E0,0E0,0E0,0E0],"parents":[2147483647,0,0,1,1,3,3,4,4,5,5,8,8,10,10,11,11,13,13,16,16,18,18,19,19],"right_children":[2,4,-1,6,8,10,-1,-1,12,-1,14,16,-1,18,-1,-1,20,-1,22,24,-1,-1,-1,-1,-1],"split_conditions":[1E0,3E0,-5.4758873E-2,5.5E1,3.21E0,7.43E1,-3.535353E-2,-5.5492133E-2,1.4E1,-2.812974E-2,3E0,4E0,-4.42264E-2,2.93E0,5.8430947E-2,-4.2548418E-2,6E0,-3.995085E-2,7.94E1,7.26E1,-3.1702686E-2,4.4511086E-3,4.540404E-2,-2.5961652E-2,4.8065823E-2],"split_indices":[1,79,0,6,4,5,0,0,7,0,49,19,0,4,0,0,26,0,5,5,0,0,0,0,0],"split_type":[0,0,0,0,0,0,0,0,0,0,0,0,0,0,0,0,0,0,0,0,0,0,0,0,0],"sum_hessian":[2.085656E2,1.3823528E2,7.033032E1,7.298961E1,6.524567E1,7.121802E1,1.7715868E0,1.7501154E1,4.7744507E1,1.4849111E0,6.973311E1,4.328158E1,4.462928E0,2.9070404E1,4.0662704E1,1.8900013E0,4.139158E1,1.2291322E0,2.7841272E1,3.9753735E1,1.6378466E0,5.260271E0,2.2581001E1,1.2732849E0,3.848045E1],"tree_param":{"num_deleted":"0","num_feature":"81","num_nodes":"25","size_leaf_vector":"1"}},{"base_weights":[-3.5950832E-2,4.9412504E-1,-5.4399498E-2,7.4053645E-1,-1.1464083E-1,8.0527973E-1,-4.2379986E-2,6.2194264E-1,-7.3548526E-1,-3.7576478E-2,8.6617094E-1,-4.2214032E-2,4.9627304E-2,2.521185E-1,-5.7459574E-2,9.01106E-1,-4.2545658E-2,-3.762565E-2,4.5814037E-2,9.303028E-1,-2.5980983E-2,2.5878564E-2,5.4028895E-2],"categories":[0,2,3],"categories_nodes":[8],"categories_segments":[0],"categories_sizes":[3],"default_left":[0,0,0,0,0,0,0,0,1,0,0,0,0,0,0,0,0,0,0,0,0,0,0],"id":26,"left_children":[1,3,-1,5,7,9,-1,11,13,-1,15,-1,-1,17,-1,19,-1,-1,-1,21,-1,-1,-1],"loss_changes":[1.14070595E2,2.0624771E1,0E0,1.0825405E1,1.8847872E1,9.760586E0,0E0,1.1269467E1,9.742427E0,0E0,6.4460907E0,0E0,0E0,5.8821616E0,0E0,4.448555E0,0E0,0E0,0E0,4.4218216E0,0E0,0E0,0E0],"parents":[2147483647,0,0,1,1,3,3,4,4,5,5,7,7,8,8,10,10,13,13,15,15,19,19],"right_children":[2,4,-1,6,8,10,-1,12,14,-1,16,-1,-1,18,-1,20,-1,-1,-1,22,-1,-1,-1],"split_conditions":[1E0,5E0,-5.4399498E-2,5.5E1,5E0,7.43E1,-4.2379986E-2,5E0,NaN,-3.7576478E-2,6E0,-4.2214032E-2,4.9627304E-2,6E0,-5.7459574E-2,9.47E1,-4.2545658E-2,-3.762565E-2,4.5814037E-2,3.207E1,-2.5980983E-2,2.5878564E-2,5.4028895E-2],"split_indices":[1,51,0,6,72,5,0,74,3,0,47,0,0,18,0,5,0,0,0,6,0,0,0],"split_type":[0,0,0,0,0,0,0,0,1,0,0,0,0,0,0,0,0,0,0,0,0,0,0],"sum_hessian":[2.0183076E2,1.3449165E2,6.733912E1,9.583885E1,3.8652798E1,9.282813E1,3.0107155E0,1.749338E1,2.1159418E1,2.8059082E0,9.0022224E1,3.0710628E0,1.4422317E1,6.2125936E0,1.4946826E1,8.895206E1,1.0701706E0,2.256559E0,3.9560344E0,8.775607E1,1.1959838E0,2.535025E1,6.2405823E1],"tree_param":{"num_deleted":"0","num_feature":"81","num_nodes":"23","size_leaf_vector":"1"}},{"base_weights":[-3.666731E-2,4.8050156E-1,-5.4056503E-2,5.789274E-1,-4.797272E-2,7.9623544E-1,-1.5464122E-2,8.759938E-1,-1.984504E-1,5.108748E-1,-6.7360663E-1,-4.8510816E-2,9.176914E-1,4.0865798E-2,-5.8264058E-2,-4.988687E-2,4.80123E-2,4.0865798E-2,-5.6231674E-2,-2.3439893E-2,9.4745654E-1,5.241242E-2,2.8798847E-2],"categories":[0,3],"categories_nodes":[20],"categories_segments":[0],"categories_sizes":[2],"default_left":[0,0,0,0,0,0,0,0,0,0,0,0,0,0,0,0,0,0,0,0,1,0,0],"id":27,"left_children":[1,3,-1,5,-1,7,9,11,13,15,17,-1,19,-1,-1,-1,-1,-1,-1,-1,21,-1,-1],"loss_changes":[1.0708654E2,1.935124E1,0E0,1.6328735E1,0E0,7.6624794E0,1.2361562E1,7.671524E0,8.735664E0,1.4457006E1,1.1987196E1,0E0,4.1520004E0,0E0,0E0,0E0,0E0,0E0,0E0,0E0,1.9497375E0,0E0,0E0],"parents":[2147483647,0,0,1,1,3,3,5,5,6,6,7,7,8,8,9,9,10,10,12,12,20,20],"right_children":[2,4,-1,6,-1,8,10,12,14,16,18,-1,20,-1,-1,-1,-1,-1,-1,-1,22,-1,-1],"split_conditions":[1E0,1.806E1,-5.4056503E-2,4.75E0,-4.797272E-2,4.75E0,5E0,6E-2,2E0,5E0,2E0,-4.8510816E-2,7.37E1,4.0865798E-2,-5.8264058E-2,-4.988687E-2,4.80123E-2,4.0865798E-2,-5.6231674E-2,-2.3439893E-2,NaN,5.241242E-2,2.8798847E-2],"split_indices":[1,7,0,69,0,63,72,7,15,74,18,0,5,0,0,0,0,0,0,0,3,0,0],"split_type":[0,0,0,0,0,0,0,0,0,0,0,0,0,0,0,0,0,0,0,0,1,0,0],"sum_hessian":[1.955182E2,1.3105936E2,6.4458855E1,1.235363E2,7.5230618E0,9.046034E1,3.3075954E1,8.411604E1,6.344303E0,1.8322596E1,1.4753356E1,1.1106437E0,8.3005394E1,3.0620246E0,3.2822785E0,3.7274013E0,1.4595196E1,3.0620246E0,1.1691332E1,1.1804906E0,8.1824905E1,6.2041267E1,1.978364E1],"tree_param":{"num_deleted":"0","num_feature":"81","num_nodes":"23","size_leaf_vector":"1"}},{"base_weights":[-3.705173E-2,4.6790096E-1,-5.372852E-2,8.215198E-1,6.004306E-2,8.7486124E-1,-3.3534188E-2,-5.4396607E-2,4.9848235E-1,1.2610826E-1,9.873627E-1,6.6042846E-1,-4.213314E-2,-6.847354E-2,4.0007904E-2,1.0681881E0,3.8191113E-1,-4.109029E-2,7.6089525E-1,5.529344E-1,5.7145465E-2,4.0180344E-2,-6.0652148E-2,8.3947754E-1,-2.9306808E-2,-4.9536686E-2,4.8755217E-2,-2.4554286E-2,4.5288965E-2],"categories":[2,3],"categories_nodes":[10],"categories_segments":[0],"categories_sizes":[2],"default_left":[0,0,0,0,0,0,0,0,0,0,1,0,0,0,0,0,0,0,0,0,0,0,0,0,0,0,0,0,0],"id":28,"left_children":[1,3,-1,5,7,9,-1,-1,11,13,15,17,-1,-1,-1,19,21,-1,23,25,-1,-1,-1,27,-1,-1,-1,-1,-1],"loss_changes":[1.0063544E2,1.8310621E1,0E0,6.2464523E0,3.1505856E1,5.206154E0,0E0,0E0,1.0542939E1,1.1781705E1,1.9529533E0,6.9476166E0,0E0,0E0,0E0,7.063942E-1,7.2432947E0,0E0,4.8786736E0,7.1746674E0,0E0,0E0,0E0,4.0280933E0,0E0,0E0,0E0,0E0,0E0],"parents":[2147483647,0,0,1,1,3,3,4,4,5,5,8,8,9,9,10,10,11,11,15,15,16,16,18,18,19,19,23,23],"right_children":[2,4,-1,6,8,10,-1,-1,12,14,16,18,-1,-1,-1,20,22,-1,24,26,-1,-1,-1,28,-1,-1,-1,-1,-1],"split_conditions":[1E0,3E0,-5.372852E-2,5.5E1,3.21E0,3.108E1,-3.3534188E-2,-5.4396607E-2,1.4E1,3E0,NaN,4E0,-4.213314E-2,-6.847354E-2,4.0007904E-2,7.98E1,3E0,-4.109029E-2,6E0,3E0,5.7145465E-2,4.0180344E-2,-6.0652148E-2,7.26E1,-2.9306808E-2,-4.9536686E-2,4.8755217E-2,-2.4554286E-2,4.5288965E-2],"split_indices":[1,79,0,6,4,6,0,0,7,4,3,19,0,0,0,5,4,0,26,4,0,0,0,5,0,0,0,0,0],"split_type":[0,0,0,0,0,0,0,0,0,0,1,0,0,0,0,0,0,0,0,0,0,0,0,0,0,0,0,0,0],"sum_hessian":[1.8935068E2,1.2766323E2,6.1687443E1,6.737091E1,6.029232E1,6.570679E1,1.6641266E0,1.5993711E1,4.429861E1,9.2195425E0,5.648724E1,4.025821E1,4.040401E0,2.3483992E0,6.8711433E0,4.8627407E1,7.859835E0,1.8278505E0,3.843036E1,7.9123106E0,4.0715096E1,6.830765E0,1.0290707E0,3.6932404E1,1.497953E0,1.210494E0,6.7018166E0,1.1938903E0,3.5738514E1],"tree_param":{"num_deleted":"0","num_feature":"81","num_nodes":"29","size_leaf_vector":"1"}},{"base_weights":[-3.8317826E-2,4.553623E-1,-5.3414274E-2,8.0303013E-1,5.4503802E-2,8.5622287E-1,-3.2931663E-2,-5.3801216E-2,4.8137176E-1,1.17216125E-1,9.687285E-1,6.39741E-1,-4.1503254E-2,-6.6452906E-2,3.903566E-2,1.0505854E0,3.648446E-1,-4.024522E-2,7.3918015E-1,5.350201E-1,5.6308735E-2,3.926889E-2,-5.8949616E-2,8.869224E-1,-3.9671216E-2,-4.8388407E-2,4.781248E-2,-2.2713942E-2,4.788699E-2,4.0754247E-2,-4.9710456E-2],"categories":[2,3],"categories_nodes":[10],"categories_segments":[0],"categories_sizes":[2],"default_left":[0,0,0,0,0,0,0,0,0,0,1,0,0,0,0,0,0,0,0,0,0,0,0,0,0,0,0,0,0,0,0],"id":29,"left_children":[1,3,-1,5,7,9,-1,-1,11,13,15,17,-1,-1,-1,19,21,-1,23,25,-1,-1,-1,27,29,-1,-1,-1,-1,-1,-1],"loss_changes":[9.4503784E1,1.7198664E1,0E0,5.940014E0,2.9401152E1,4.9961166E0,0E0,0E0,9.858313E0,1.105546E1,1.9352875E0,6.5568523E0,0E0,0E0,0E0,7.133446E-1,6.879119E0,0E0,4.71826E0,6.837471E0,0E0,0E0,0E0,3.796524E0,6.858871E0,0E0,0E0,0E0,0E0,0E0,0E0],"parents":[2147483647,0,0,1,1,3,3,4,4,5,5,8,8,9,9,10,10,11,11,15,15,16,16,18,18,19,19,23,23,24,24],"right_children":[2,4,-1,6,8,10,-1,-1,12,14,16,18,-1,-1,-1,20,22,-1,24,26,-1,-1,-1,28,30,-1,-1,-1,-1,-1,-1],"split_conditions":[1E0,3E0,-5.3414274E-2,5.5E1,3.21E0,3.108E1,-3.2931663E-2,-5.3801216E-2,1.4E1,3E0,NaN,4E0,-4.1503254E-2,-6.6452906E-2,3.903566E-2,7.98E1,3E0,-4.024522E-2,5.5E0,3E0,5.6308735E-2,3.926889E-2,-5.8949616E-2,7.26E1,5E0,-4.8388407E-2,4.781248E-2,-2.2713942E-2,4.788699E-2,4.0754247E-2,-4.9710456E-2],"split_indices":[1,79,0,6,4,6,0,0,7,4,3,19,0,0,0,5,4,0,72,4,0,0,0,5,49,0,0,0,0,0,0],"split_type":[0,0,0,0,0,0,0,0,0,0,1,0,0,0,0,0,0,0,0,0,0,0,0,0,0,0,0,0,0,0,0],"sum_hessian":[1.8311023E2,1.24087654E2,5.9022583E1,6.54471E1,5.8640556E1,6.3813602E1,1.6334958E0,1.5391287E1,4.324927E1,9.062156E0,5.4751446E1,3.9330566E1,3.9187043E0,2.3371072E0,6.725048E0,4.7036922E1,7.7145243E0,1.799879E0,3.753069E1,7.728513E0,3.9308407E1,6.6728983E0,1.0416261E0,3.1670559E1,5.860129E0,1.2070075E0,6.5215054E0,1.071869E0,3.059869E1,3.0498257E0,2.8103034E0],"tree_param":{"num_deleted":"0","num_feature":"81","num_nodes":"31","size_leaf_vector":"1"}},{"base_weights":[-3.9359532E-2,4.4381067E-1,-5.3112596E-2,5.3745747E-1,-4.651989E-2,7.432749E-1,-2.6986135E-2,7.8396124E-1,-4.816272E-2,4.7380015E-1,-6.65121E-1,8.291084E-1,-4.063027E-2,-4.832922E-2,4.5672383E-2,3.82207E-2,-5.5039372E-2,-4.6186447E-2,8.702836E-1,-2.2182735E-2,4.495718E-2],"categories":[],"categories_nodes":[],"categories_segments":[],"categories_sizes":[],"default_left":[0,0,0,0,0,0,0,0,0,0,0,0,0,0,0,0,0,0,0,0,0],"id":30,"left_children":[1,3,-1,5,-1,7,9,11,-1,13,15,17,-1,-1,-1,-1,-1,-1,19,-1,-1],"loss_changes":[8.882804E1,1.6196505E1,0E0,1.3558983E1,0E0,6.773678E0,1.0539734E1,6.8628883E0,0E0,1.2625347E1,1.0249701E1,6.905834E0,0E0,0E0,0E0,0E0,0E0,0E0,3.6782799E0,0E0,0E0],"parents":[2147483647,0,0,1,1,3,3,5,5,6,6,7,7,9,9,10,10,11,11,18,18],"right_children":[2,4,-1,6,-1,8,10,12,-1,14,16,18,-1,-1,-1,-1,-1,-1,20,-1,-1],"split_conditions":[1E0,1.806E1,-5.3112596E-2,4.75E0,-4.651989E-2,4E0,5E0,6E0,-4.816272E-2,5E0,2E0,6E-2,-4.063027E-2,-4.832922E-2,4.5672383E-2,3.82207E-2,-5.5039372E-2,-4.6186447E-2,7.37E1,-2.2182735E-2,4.495718E-2],"split_indices":[1,7,0,69,0,4,72,47,0,74,18,7,0,0,0,0,0,0,5,0,0],"split_type":[0,0,0,0,0,0,0,0,0,0,0,0,0,0,0,0,0,0,0,0,0],"sum_hessian":[1.7697456E2,1.2051278E2,5.646178E1,1.1370714E2,6.8056407E0,8.335839E1,3.0348745E1,8.222039E1,1.1380013E0,1.6965187E1,1.3383557E1,8.0695946E1,1.5244424E0,3.4839997E0,1.3481188E1,2.7717283E0,1.0611829E1,1.0978051E0,7.9598145E1,1.1384474E0,7.8459694E1],"tree_param":{"num_deleted":"0","num_feature":"81","num_nodes":"21","size_leaf_vector":"1"}},{"base_weights":[-4.074464E-2,4.3053848E-1,-5.282241E-2,7.6842356E-1,4.0845145E-2,8.215511E-1,-3.2090873E-2,-5.305651E-2,4.5439574E-1,8.659065E-2,9.3565935E-1,6.0783654E-1,-4.0414587E-2,-6.476636E-2,3.7323736E-2,1.0202276E0,3.27391E-1,-3.9364696E-2,7.0806855E-1,4.938922E-1,5.4961544E-2,3.742014E-2,-5.6592405E-2,8.513656E-1,-4.1050762E-2,-4.815113E-2,4.6215214E-2,-2.192456E-2,4.608822E-2,3.9276596E-2,-4.7940064E-2],"categories":[2,3],"categories_nodes":[10],"categories_segments":[0],"categories_sizes":[2],"default_left":[0,0,0,0,0,0,0,0,0,0,1,0,0,0,0,0,0,0,0,0,0,0,0,0,0,0,0,0,0,0,0],"id":31,"left_children":[1,3,-1,5,7,9,-1,-1,11,13,15,17,-1,-1,-1,19,21,-1,23,25,-1,-1,-1,27,29,-1,-1,-1,-1,-1,-1],"loss_changes":[8.337428E1,1.5382191E1,0E0,5.434597E0,2.6321342E1,4.806408E0,0E0,0E0,8.76291E0,1.0141188E1,1.9652252E0,6.077812E0,0E0,0E0,0E0,8.136444E-1,6.2801704E0,0E0,4.202915E0,6.5062065E0,0E0,0E0,0E0,3.4662113E0,6.1666236E0,0E0,0E0,0E0,0E0,0E0,0E0],"parents":[2147483647,0,0,1,1,3,3,4,4,5,5,8,8,9,9,10,10,11,11,15,15,16,16,18,18,19,19,23,23,24,24],"right_children":[2,4,-1,6,8,10,-1,-1,12,14,16,18,-1,-1,-1,20,22,-1,24,26,-1,-1,-1,28,30,-1,-1,-1,-1,-1,-1],"split_conditions":[1E0,3E0,-5.282241E-2,5.5E1,3.21E0,3.108E1,-3.2090873E-2,-5.305651E-2,1.4E1,3E0,NaN,4E0,-4.0414587E-2,-6.476636E-2,3.7323736E-2,7.98E1,3E0,-3.9364696E-2,5.5E0,3E0,5.4961544E-2,3.742014E-2,-5.6592405E-2,7.26E1,5E0,-4.815113E-2,4.6215214E-2,-2.192456E-2,4.608822E-2,3.9276596E-2,-4.7940064E-2],"split_indices":[1,79,0,6,4,6,0,0,7,4,3,19,0,0,0,5,4,0,72,4,0,0,0,5,49,0,0,0,0,0,0],"split_type":[0,0,0,0,0,0,0,0,0,0,1,0,0,0,0,0,0,0,0,0,0,0,0,0,0,0,0,0,0,0,0],"sum_hessian":[1.7140935E2,1.1740693E2,5.4002422E1,6.1889256E1,5.5517677E1,6.0316063E1,1.5731918E0,1.4450359E1,4.1067318E1,8.69592E0,5.162014E1,3.7372147E1,3.6951733E0,2.2989473E0,6.396973E0,4.4215263E1,7.4048786E0,1.7634901E0,3.5608654E1,7.366577E0,3.6848686E1,6.352362E0,1.0525168E0,3.0027824E1,5.58083E0,1.1947587E0,6.1718183E0,1.0320162E0,2.899581E1,2.8876839E0,2.6931462E0],"tree_param":{"num_deleted":"0","num_feature":"81","num_nodes":"31","size_leaf_vector":"1"}},{"base_weights":[-4.184192E-2,4.1948435E-1,-5.2542675E-2,7.5136614E-1,3.6374103E-2,8.001291E-1,-4.3003377E-2,-5.2498717E-2,4.4023085E-1,8.5214716E-1,-3.0650446E-2,8.2504505E-1,-6.774382E-2,7.893334E-2,4.8825737E-2,3.455316E-1,5.0515693E-2,5.198473E-1,-5.556072E-2,-6.292059E-2,3.641552E-2,4.5913815E-2,-4.630715E-2,-4.3869916E-2,4.13415E-2],"categories":[],"categories_nodes":[],"categories_segments":[],"categories_sizes":[],"default_left":[0,0,0,0,0,0,0,0,0,0,0,0,0,0,0,0,0,0,0,0,0,0,0,0,0],"id":32,"left_children":[1,3,-1,5,7,9,-1,-1,11,13,-1,15,17,19,-1,21,-1,23,-1,-1,-1,-1,-1,-1,-1],"loss_changes":[7.8397125E1,1.4423418E1,0E0,5.665512E0,2.4626682E1,5.148285E0,0E0,0E0,8.324804E0,5.3029633E0,0E0,1.3436203E0,1.2310898E1,9.522434E0,0E0,7.5601225E0,0E0,6.3141193E0,0E0,0E0,0E0,0E0,0E0,0E0,0E0],"parents":[2147483647,0,0,1,1,3,3,4,4,5,5,8,8,9,9,11,11,12,12,13,13,15,15,17,17],"right_children":[2,4,-1,6,8,10,-1,-1,12,14,-1,16,18,20,-1,22,-1,24,-1,-1,-1,-1,-1,-1,-1],"split_conditions":[1E0,3E0,-5.2542675E-2,4E0,3.21E0,5.5E1,-4.3003377E-2,-5.2498717E-2,5E0,3.108E1,-3.0650446E-2,5E0,5E0,3E0,4.8825737E-2,4.0384617E0,5.0515693E-2,3.03E0,-5.556072E-2,-6.292059E-2,3.641552E-2,4.5913815E-2,-4.630715E-2,-4.3869916E-2,4.13415E-2],"split_indices":[1,79,0,4,4,6,0,0,72,6,0,74,11,4,0,68,0,7,0,0,0,0,0,0,0],"split_type":[0,0,0,0,0,0,0,0,0,0,0,0,0,0,0,0,0,0,0,0,0,0,0,0,0],"sum_hessian":[1.6564798E2,1.140062E2,5.1641773E1,6.0093853E1,5.391235E1,5.909022E1,1.0036311E0,1.3900918E1,4.0011433E1,5.7641556E1,1.4486643E0,2.2601599E1,1.7409832E1,8.548378E0,4.9093178E1,7.6729975E0,1.4928602E1,1.1385944E1,6.0238886E0,2.2850842E0,6.2632937E0,5.6653624E0,2.007635E0,1.4858738E0,9.90007E0],"tree_param":{"num_deleted":"0","num_feature":"81","num_nodes":"25","size_leaf_vector":"1"}},{"base_weights":[-4.267639E-2,4.0890288E-1,-5.2272435E-2,4.9898303E-1,-4.5247983E-2,-4.251857E-2,5.750237E-1,6.359203E-1,-3.8996644E-2,6.735935E-1,-4.6459984E-2,3.02047E-1,8.777065E-1,-6.1448764E-2,3.148912E-2,4.9365208E-2,1.6858896E-2],"categories":[],"categories_nodes":[],"categories_segments":[],"categories_sizes":[],"default_left":[0,0,0,0,0,0,0,0,0,0,0,0,0,0,0,0,0],"id":33,"left_children":[1,3,-1,5,-1,-1,7,9,-1,11,-1,13,15,-1,-1,-1,-1],"loss_changes":[7.3763885E1,1.3716873E1,0E0,1.1396542E1,0E0,0E0,8.922867E0,6.472164E0,0E0,6.6668243E0,0E0,1.9101551E1,2.865219E0,0E0,0E0,0E0,0E0],"parents":[2147483647,0,0,1,1,3,3,6,6,7,7,9,9,11,11,12,12],"right_children":[2,4,-1,6,-1,-1,8,10,-1,12,-1,14,16,-1,-1,-1,-1],"split_conditions":[1E0,1.806E1,-5.2272435E-2,7.26E1,-4.5247983E-2,-4.251857E-2,5.375E0,4E0,-3.8996644E-2,3.21E0,-4.6459984E-2,3.108E1,5E0,-6.1448764E-2,3.148912E-2,4.9365208E-2,1.6858896E-2],"split_indices":[1,7,0,5,0,0,69,4,0,4,0,6,11,0,0,0,0],"split_type":[0,0,0,0,0,0,0,0,0,0,0,0,0,0,0,0,0],"sum_hessian":[1.6011342E2,1.1073639E2,4.9377033E1,1.0453489E2,6.2015E0,4.722196E0,9.98127E1,9.6331085E1,3.4816124E0,9.491811E1,1.4129673E0,3.5188725E1,5.972939E1,5.4638863E0,2.9724838E1,4.841671E1,1.1312679E1],"tree_param":{"num_deleted":"0","num_feature":"81","num_nodes":"17","size_leaf_vector":"1"}},{"base_weights":[-4.3638732E-2,3.963305E-1,-5.2010816E-2,7.1915305E-1,2.3413489E-2,7.684445E-1,-4.1065495E-2,-5.1704075E-2,4.1399366E-1,8.20917E-1,-3.0110348E-2,7.972376E-1,-8.884194E-2,5.904856E-2,9.4532216E-1,3.1189087E-1,4.922694E-2,4.7406885E-1,-5.542597E-2,-5.9480853E-2,3.466589E-2,6.676296E-1,5.4303773E-2,4.443386E-2,-4.5576524E-2,-4.0573947E-2,3.8180176E-2,4.1059624E-2,1.6364187E-3],"categories":[0,2],"categories_nodes":[21],"categories_segments":[0],"categories_sizes":[2],"default_left":[0,0,0,0,0,0,0,0,0,0,0,0,0,0,0,0,0,0,0,0,0,1,0,0,0,0,0,0,0],"id":34,"left_children":[1,3,-1,5,7,9,-1,-1,11,13,-1,15,17,19,21,23,-1,25,-1,-1,-1,27,-1,-1,-1,-1,-1,-1,-1],"loss_changes":[6.930356E1,1.2952982E1,0E0,5.194166E0,2.2011742E1,4.78574E0,0E0,0E0,7.841293E0,4.9664497E0,0E0,1.3570852E0,1.1058527E1,8.387899E0,5.1527786E-1,7.0236998E0,0E0,5.3093476E0,0E0,0E0,0E0,1.6881895E0,0E0,0E0,0E0,0E0,0E0,0E0,0E0],"parents":[2147483647,0,0,1,1,3,3,4,4,5,5,8,8,9,9,11,11,12,12,13,13,14,14,15,15,17,17,21,21],"right_children":[2,4,-1,6,8,10,-1,-1,12,14,-1,16,18,20,22,24,-1,26,-1,-1,-1,28,-1,-1,-1,-1,-1,-1,-1],"split_conditions":[1E0,3E0,-5.2010816E-2,4E0,3.21E0,5.5E1,-4.1065495E-2,-5.1704075E-2,5E0,3.108E1,-3.0110348E-2,5E0,4.8461537E0,3E0,3E0,4.0384617E0,4.922694E-2,3.03E0,-5.542597E-2,-5.9480853E-2,3.466589E-2,NaN,5.4303773E-2,4.443386E-2,-4.5576524E-2,-4.0573947E-2,3.8180176E-2,4.1059624E-2,1.6364187E-3],"split_indices":[1,79,0,4,4,6,0,0,72,6,0,74,68,4,49,68,0,7,0,0,0,3,0,0,0,0,0,0,0],"split_type":[0,0,0,0,0,0,0,0,0,0,0,0,0,0,0,0,0,0,0,0,0,1,0,0,0,0,0,0,0],"sum_hessian":[1.5526762E2,1.08062294E2,4.7205334E1,5.694009E1,5.11222E1,5.5938908E1,1.0011841E0,1.3060745E1,3.8061455E1,5.4534893E1,1.4040146E0,2.1466078E1,1.6595377E1,8.19582E0,4.6339073E1,7.2766347E0,1.4189444E1,1.0965546E1,5.6298323E0,2.2593303E0,5.9364896E0,1.859943E1,2.7739641E1,5.3165092E0,1.9601256E0,1.4427662E0,9.522779E0,1.4364555E1,4.2348757E0],"tree_param":{"num_deleted":"0","num_feature":"81","num_nodes":"29","size_leaf_vector":"1"}},{"base_weights":[-4.391948E-2,3.869171E-1,-5.1756967E-2,4.7443265E-1,-4.4383362E-2,-4.153035E-2,5.480196E-1,6.065439E-1,-3.775614E-2,6.441825E-1,-4.441145E-2,2.782061E-1,8.464532E-1,-6.20549E-2,2.9809281E-2,4.792359E-2,1.5441643E-2],"categories":[],"categories_nodes":[],"categories_segments":[],"categories_sizes":[],"default_left":[0,0,0,0,0,0,0,0,0,0,0,0,0,0,0,0,0],"id":35,"left_children":[1,3,-1,5,-1,-1,7,9,-1,11,-1,13,15,-1,-1,-1,-1],"loss_changes":[6.530259E1,1.2273605E1,0E0,1.0141186E1,0E0,0E0,7.8557816E0,5.8717155E0,0E0,6.186554E0,0E0,1.7584225E1,2.7928505E0,0E0,0E0,0E0,0E0],"parents":[2147483647,0,0,1,1,3,3,6,6,7,7,9,9,11,11,12,12],"right_children":[2,4,-1,6,-1,-1,8,10,-1,12,-1,14,16,-1,-1,-1,-1],"split_conditions":[1E0,1.806E1,-5.1756967E-2,7.26E1,-4.4383362E-2,-4.153035E-2,5.375E0,4E0,-3.775614E-2,3.21E0,-4.441145E-2,8.2E1,5E0,-6.20549E-2,2.9809281E-2,4.792359E-2,1.5441643E-2],"split_indices":[1,7,0,5,0,0,69,4,0,4,0,5,11,0,0,0,0],"split_type":[0,0,0,0,0,0,0,0,0,0,0,0,0,0,0,0,0],"sum_hessian":[1.5011243E2,1.04988655E2,4.5123768E1,9.916093E1,5.827729E0,4.425183E0,9.473575E1,9.148708E1,3.2486637E0,9.009698E1,1.390102E0,3.3567394E1,5.6529583E1,5.0454082E0,2.8521988E1,4.5587463E1,1.0942121E1],"tree_param":{"num_deleted":"0","num_feature":"81","num_nodes":"17","size_leaf_vector":"1"}},{"base_weights":[-4.494015E-2,3.7464818E-1,-5.1510107E-2,6.9001484E-1,1.0249888E-2,8.648396E-1,1.7903131E-1,-5.0955344E-2,3.886017E-1,-4.1635856E-2,9.4278795E-1,3.4053546E-1,-4.0078964E-2,7.70723E-1,-1.0934544E-1,3.9524496E-1,5.1468827E-2,-3.9439347E-2,5.3037983E-1,2.7938685E-1,4.8007414E-2,4.4745594E-1,-5.3814262E-2,-4.775051E-2,4.291993E-2,4.5388557E-2,1.4219567E-1,4.302571E-2,-4.487669E-2,-4.349292E-2,3.819427E-2,-5.9842754E-2,2.9133955E-2],"categories":[2,3],"categories_nodes":[3],"categories_segments":[0],"categories_sizes":[2],"default_left":[0,0,0,1,0,0,0,0,0,0,0,0,0,0,0,0,0,0,0,0,0,0,0,0,0,0,0,0,0,0,0,0,0],"id":36,"left_children":[1,3,-1,5,7,9,11,-1,13,-1,15,17,-1,19,21,23,-1,-1,25,27,-1,29,-1,-1,-1,-1,31,-1,-1,-1,-1,-1,-1],"loss_changes":[6.1366207E1,1.1738742E1,0E0,4.4792557E0,1.9720407E1,6.3625183E0,2.763038E0,0E0,7.4013042E0,0E0,1.0037537E0,3.64225E0,0E0,1.3691425E0,9.956091E0,5.881431E0,0E0,0E0,1.5759006E0,6.532E0,0E0,5.622264E0,0E0,0E0,0E0,0E0,5.753967E0,0E0,0E0,0E0,0E0,0E0,0E0],"parents":[2147483647,0,0,1,1,3,3,4,4,5,5,6,6,8,8,10,10,11,11,13,13,14,14,15,15,18,18,19,19,21,21,26,26],"right_children":[2,4,-1,6,8,10,12,-1,14,-1,16,18,-1,20,22,24,-1,-1,26,28,-1,30,-1,-1,-1,-1,32,-1,-1,-1,-1,-1,-1],"split_conditions":[1E0,3E0,-5.1510107E-2,NaN,3.21E0,3.108E1,1.102E1,-5.0955344E-2,5E0,-4.1635856E-2,7.98E1,7.7E1,-4.0078964E-2,5E0,5E0,3E0,5.1468827E-2,-3.9439347E-2,8.13E1,4.0384617E0,4.8007414E-2,3.03E0,-5.3814262E-2,-4.775051E-2,4.291993E-2,4.5388557E-2,4.406E1,4.302571E-2,-4.487669E-2,-4.349292E-2,3.819427E-2,-5.9842754E-2,2.9133955E-2],"split_indices":[1,79,0,3,4,6,7,0,72,0,5,5,0,74,11,4,0,0,5,68,0,7,0,0,0,0,6,0,0,0,0,0,0],"split_type":[0,0,0,1,0,0,0,0,0,0,0,0,0,0,0,0,0,0,0,0,0,0,0,0,0,0,0,0,0,0,0,0,0],"sum_hessian":[1.4562766E2,1.02498215E2,4.3129433E1,5.397918E1,4.851904E1,3.9209427E1,1.47697525E1,1.2293966E1,3.6225075E1,1.0491924E0,3.8160233E1,1.360062E1,1.1691319E0,2.039296E1,1.5832112E1,6.554685E0,3.1605549E1,1.2002448E0,1.2400376E1,6.9025025E0,1.3490458E1,1.0308873E1,5.5232396E0,1.197196E0,5.357489E0,5.1126847E0,7.287691E0,4.9880357E0,1.9144669E0,1.4202013E0,8.888672E0,1.132118E0,6.1555734E0],"tree_param":{"num_deleted":"0","num_feature":"81","num_nodes":"33","size_leaf_vector":"1"}},{"base_weights":[-4.598173E-2,3.6493966E-1,-5.126947E-2,4.5039093E-1,-4.360415E-2,-4.0461153E-2,5.213249E-1,5.7765687E-1,-3.6546126E-2,6.1534303E-1,-4.2723548E-2,2.5730404E-1,8.153028E-1,-5.993084E-2,2.8206063E-2,4.6456847E-2,1.4213398E-2],"categories":[],"categories_nodes":[],"categories_segments":[],"categories_sizes":[],"default_left":[0,0,0,0,0,0,0,0,0,0,0,0,0,0,0,0,0],"id":37,"left_children":[1,3,-1,5,-1,-1,7,9,-1,11,-1,13,15,-1,-1,-1,-1],"loss_changes":[5.7771805E1,1.1035865E1,0E0,8.966606E0,0E0,0E0,6.917757E0,5.352028E0,0E0,5.6790695E0,0E0,1.5586323E1,2.6687012E0,0E0,0E0,0E0,0E0],"parents":[2147483647,0,0,1,1,3,3,6,6,7,7,9,9,11,11,12,12],"right_children":[2,4,-1,6,-1,-1,8,10,-1,12,-1,14,16,-1,-1,-1,-1],"split_conditions":[1E0,1.806E1,-5.126947E-2,7.26E1,-4.360415E-2,-4.0461153E-2,5.375E0,4E0,-3.6546126E-2,3.21E0,-4.2723548E-2,8.2E1,5E0,-5.993084E-2,2.8206063E-2,4.6456847E-2,1.4213398E-2],"split_indices":[1,7,0,5,0,0,69,4,0,4,0,5,11,0,0,0,0],"split_type":[0,0,0,0,0,0,0,0,0,0,0,0,0,0,0,0,0],"sum_hessian":[1.4072433E2,9.950492E1,4.1219418E1,9.4008E1,5.4969187E0,4.1302524E0,8.9877754E1,8.684412E1,3.0336354E0,8.548215E1,1.36197E0,3.2105026E1,5.3377117E1,4.813889E0,2.729114E1,4.2795483E1,1.0581634E1],"tree_param":{"num_deleted":"0","num_feature":"81","num_nodes":"17","size_leaf_vector":"1"}},{"base_weights":[-4.702755E-2,3.5303426E-1,-5.103438E-2,6.6125584E-1,-0E0,2.9541627E-1,9.280367E-1,-5.0248303E-2,3.6414707E-1,-4.6873476E-2,4.7942054E-1,1.3026556E-1,5.0639834E-2,7.4530745E-1,-1.2933107E-1,-1.0984192E-1,6.541515E-1,3.3224534E-2,-3.2198742E-2,2.479708E-1,4.6845745E-2,4.0538314E-1,-5.4039586E-2,-6.49679E-2,3.383366E-2,4.74368E-2,3.268416E-1,4.1679453E-2,-4.4204365E-2,-3.947476E-2,3.5009164E-2,-9.1911707E-4,2.6984086E-2],"categories":[0,2,3],"categories_nodes":[16],"categories_segments":[0],"categories_sizes":[3],"default_left":[0,0,0,0,0,0,0,0,0,0,0,0,0,0,0,0,1,0,0,0,0,0,0,0,0,0,0,0,0,0,0,0,0],"id":38,"left_children":[1,3,-1,5,7,9,11,-1,13,-1,15,17,-1,19,21,23,25,-1,-1,27,-1,29,-1,-1,-1,-1,31,-1,-1,-1,-1,-1,-1],"loss_changes":[5.4302895E1,1.0631138E1,0E0,4.4626637E0,1.7694756E1,5.962975E0,1.5309658E0,0E0,6.995929E0,0E0,2.5074973E0,2.4147043E0,0E0,1.3794956E0,9.035814E0,6.6914415E0,9.9035025E-1,0E0,0E0,6.0802855E0,0E0,4.6172357E0,0E0,0E0,0E0,0E0,9.2490447E-1,0E0,0E0,0E0,0E0,0E0,0E0],"parents":[2147483647,0,0,1,1,3,3,4,4,5,5,6,6,8,8,10,10,11,11,13,13,14,14,15,15,16,16,19,19,21,21,26,26],"right_children":[2,4,-1,6,8,10,12,-1,14,-1,16,18,-1,20,22,24,26,-1,-1,28,-1,30,-1,-1,-1,-1,32,-1,-1,-1,-1,-1,-1],"split_conditions":[1E0,3E0,-5.103438E-2,3E0,3.21E0,2.93E0,3.107E1,-5.0248303E-2,5E0,-4.6873476E-2,7.94E1,4E0,5.0639834E-2,5E0,4.8461537E0,1.601E1,NaN,3.3224534E-2,-3.2198742E-2,4.0384617E0,4.6845745E-2,3.03E0,-5.4039586E-2,-6.49679E-2,3.383366E-2,4.74368E-2,4.406E1,4.1679453E-2,-4.4204365E-2,-3.947476E-2,3.5009164E-2,-9.1911707E-4,2.6984086E-2],"split_indices":[1,79,0,49,4,4,6,0,72,0,5,16,0,74,68,7,3,0,0,68,0,7,0,0,0,0,6,0,0,0,0,0,0],"split_type":[0,0,0,0,0,0,0,0,0,0,0,0,0,0,0,0,1,0,0,0,0,0,0,0,0,0,0,0,0,0,0,0,0],"sum_hessian":[1.3657343E2,9.71826E1,3.939082E1,5.1119633E1,4.6062973E1,2.306357E1,2.8056063E1,1.157853E1,3.4484444E1,2.1539876E0,2.0909582E1,3.2823913E0,2.477367E1,1.938233E1,1.5102113E1,4.5611157E0,1.6348467E1,2.238154E0,1.0442374E0,6.5509996E0,1.283133E1,9.959571E0,5.142543E0,1.6175519E0,2.943564E0,6.953322E0,9.395144E0,4.6802754E0,1.8707241E0,1.388027E0,8.571544E0,3.5708017E0,5.8243427E0],"tree_param":{"num_deleted":"0","num_feature":"81","num_nodes":"33","size_leaf_vector":"1"}},{"base_weights":[-4.692843E-2,3.4480324E-1,-5.0804146E-2,4.2850083E-1,-4.2902146E-2,6.4153063E-1,-0E0,6.881116E-1,-3.1352673E-2,-5.72787E-2,3.1494665E-1,3.4686077E-1,9.128639E-1,6.14928E-1,-4.5450497E-2,-5.058498E-2,5.421916E-1,4.8591834E-2,1.7023808E-1,-3.298949E-2,7.5703245E-1,-9.080227E-3,3.766629E-2,-2.175336E-2,3.0876854E-2,-2.2513393E-2,4.3983273E-2],"categories":[],"categories_nodes":[],"categories_segments":[],"categories_sizes":[],"default_left":[0,0,0,0,0,0,0,0,0,0,0,0,0,0,0,0,0,0,0,0,0,0,0,0,0,0,0],"id":39,"left_children":[1,3,-1,5,-1,7,9,11,-1,-1,13,15,17,19,-1,-1,21,-1,23,-1,25,-1,-1,-1,-1,-1,-1],"loss_changes":[5.123913E1,9.989687E0,0E0,8.142458E0,0E0,4.110321E0,1.169725E1,3.8011494E0,0E0,0E0,1.0134929E1,7.4193916E0,1.0080833E0,4.5815945E0,0E0,0E0,3.9122958E0,0E0,1.5586371E0,0E0,3.6068811E0,0E0,0E0,0E0,0E0,0E0,0E0],"parents":[2147483647,0,0,1,1,3,3,5,5,6,6,7,7,10,10,11,11,12,12,13,13,16,16,18,18,20,20],"right_children":[2,4,-1,6,-1,8,10,12,-1,-1,14,16,18,20,-1,-1,22,-1,24,-1,26,-1,-1,-1,-1,-1,-1],"split_conditions":[1E0,1.806E1,-5.0804146E-2,4.3333335E0,-4.2902146E-2,4.6666665E0,5E0,3.7142856E0,-3.1352673E-2,-5.72787E-2,6E0,2.93E0,5E0,5E0,-4.5450497E-2,-5.058498E-2,7.94E1,4.8591834E-2,3.21E0,-3.298949E-2,2.93E0,-9.080227E-3,3.766629E-2,-2.175336E-2,3.0876854E-2,-2.2513393E-2,4.3983273E-2],"split_indices":[1,7,0,71,0,66,76,73,0,0,41,4,58,38,0,0,5,0,4,0,4,0,0,0,0,0,0],"split_type":[0,0,0,0,0,0,0,0,0,0,0,0,0,0,0,0,0,0,0,0,0,0,0,0,0,0,0],"sum_hessian":[1.3211908E2,9.4478325E1,3.764076E1,8.9278595E1,5.199728E0,5.8922478E1,3.0356115E1,5.7577343E1,1.3451353E0,5.7056255E0,2.465049E1,2.456728E1,3.3010063E1,2.0461737E1,4.188754E0,2.2706141E0,2.2296665E1,2.9912247E1,3.0978172E0,1.4190891E0,1.9042646E1,4.8073096E0,1.7489355E1,1.0934216E0,2.0043955E0,1.2599984E0,1.7782648E1],"tree_param":{"num_deleted":"0","num_feature":"81","num_nodes":"27","size_leaf_vector":"1"}},{"base_weights":[-4.8585687E-2,3.339961E-1,-5.0578143E-2,6.346641E-1,-3.5795858E-3,2.736994E-1,9.050906E-1,-4.9428273E-2,3.408564E-1,-4.4739377E-2,4.518283E-1,1.1314529E-1,4.952771E-2,7.16383E-1,-1.3964587E-1,6.164169E-1,-1.6155323E-1,3.1900194E-2,-3.0783003E-2,2.1993712E-1,4.544992E-2,3.751199E-1,-5.2935064E-2,3.6271106E-2,3.0893504E-3,2.1716628E-2,-5.7706E-2,4.0333327E-2,-4.2913694E-2,-3.838026E-2,3.3537593E-2],"categories":[0,0,2,3],"categories_nodes":[10,16],"categories_segments":[0,1],"categories_sizes":[1,3],"default_left":[0,0,0,0,0,0,0,0,0,0,1,0,0,0,0,0,1,0,0,0,0,0,0,0,0,0,0,0,0,0,0],"id":40,"left_children":[1,3,-1,5,7,9,11,-1,13,-1,15,17,-1,19,21,23,25,-1,-1,27,-1,29,-1,-1,-1,-1,-1,-1,-1,-1,-1],"loss_changes":[4.8171825E1,9.6183E0,0E0,4.245455E0,1.5764379E1,5.279137E0,1.4429474E0,0E0,6.3853807E0,0E0,2.396556E0,2.1687381E0,0E0,1.3346195E0,8.058752E0,8.013811E-1,3.8774462E0,0E0,0E0,5.577449E0,0E0,4.2553954E0,0E0,0E0,0E0,0E0,0E0,0E0,0E0,0E0,0E0],"parents":[2147483647,0,0,1,1,3,3,4,4,5,5,6,6,8,8,10,10,11,11,13,13,14,14,15,15,16,16,19,19,21,21],"right_children":[2,4,-1,6,8,10,12,-1,14,-1,16,18,-1,20,22,24,26,-1,-1,28,-1,30,-1,-1,-1,-1,-1,-1,-1,-1,-1],"split_conditions":[1E0,3E0,-5.0578143E-2,3E0,3.21E0,2.93E0,3.107E1,-4.9428273E-2,5E0,-4.4739377E-2,NaN,4E0,4.952771E-2,5E0,4.8461537E0,4.709E1,NaN,3.1900194E-2,-3.0783003E-2,4.0384617E0,4.544992E-2,3.03E0,-5.2935064E-2,3.6271106E-2,3.0893504E-3,2.1716628E-2,-5.7706E-2,4.0333327E-2,-4.2913694E-2,-3.838026E-2,3.3537593E-2],"split_indices":[1,79,0,49,4,4,6,0,72,0,2,16,0,74,68,6,3,0,0,68,0,7,0,0,0,0,0,0,0,0,0],"split_type":[0,0,0,0,0,0,0,0,0,0,1,0,0,0,0,0,1,0,0,0,0,0,0,0,0,0,0,0,0,0,0],"sum_hessian":[1.2789726E2,9.193085E1,3.596642E1,4.843331E1,4.349753E1,2.2217299E1,2.6216013E1,1.0852051E1,3.264548E1,2.0879898E0,2.0129309E1,3.1214356E0,2.3094578E1,1.827202E1,1.437346E1,1.6187195E1,3.9421155E0,2.104568E0,1.0168678E0,6.218842E0,1.2053179E1,9.512989E0,4.860471E0,1.2829959E1,3.3572357E0,2.7451909E0,1.1969246E0,4.3813305E0,1.8375113E0,1.3712707E0,8.141719E0],"tree_param":{"num_deleted":"0","num_feature":"81","num_nodes":"31","size_leaf_vector":"1"}},{"base_weights":[-4.8759922E-2,3.2561702E-1,-5.035577E-2,4.0787005E-1,-4.2193413E-2,6.154424E-1,-0E0,6.6145873E-1,-3.010717E-2,-5.627482E-2,2.958946E-1,3.223753E-1,8.904257E-1,5.67968E-1,-4.264812E-2,-4.8309818E-2,5.126912E-1,4.724719E-2,6.2248255E-3,-3.4789193E-2,7.3118806E-1,-9.44786E-3,3.6277663E-2,-2.1403177E-2,4.2562734E-2],"categories":[],"categories_nodes":[],"categories_segments":[],"categories_sizes":[],"default_left":[0,0,0,0,0,0,0,0,0,0,0,0,0,0,0,0,0,0,0,0,0,0,0,0,0],"id":41,"left_children":[1,3,-1,5,-1,7,9,11,-1,-1,13,15,17,19,-1,-1,21,-1,-1,-1,23,-1,-1,-1,-1],"loss_changes":[4.543921E1,9.04261E0,0E0,7.357666E0,0E0,3.7112083E0,1.0509972E1,3.670353E0,0E0,0E0,8.212197E0,6.6101527E0,9.284859E-1,4.9323974E0,0E0,0E0,3.691999E0,0E0,0E0,0E0,3.2327833E0,0E0,0E0,0E0,0E0],"parents":[2147483647,0,0,1,1,3,3,5,5,6,6,7,7,10,10,11,11,12,12,13,13,16,16,20,20],"right_children":[2,4,-1,6,-1,8,10,12,-1,-1,14,16,18,20,-1,-1,22,-1,-1,-1,24,-1,-1,-1,-1],"split_conditions":[1E0,1.806E1,-5.035577E-2,4.3333335E0,-4.2193413E-2,4.6666665E0,5E0,3.7142856E0,-3.010717E-2,-5.627482E-2,6E0,2.93E0,5E0,5E0,-4.264812E-2,-4.8309818E-2,7.94E1,4.724719E-2,6.2248255E-3,-3.4789193E-2,2.93E0,-9.44786E-3,3.6277663E-2,-2.1403177E-2,4.2562734E-2],"split_indices":[1,7,0,71,0,66,38,73,0,0,41,4,21,76,0,0,5,0,0,0,4,0,0,0,0],"split_type":[0,0,0,0,0,0,0,0,0,0,0,0,0,0,0,0,0,0,0,0,0,0,0,0,0],"sum_hessian":[1.2377968E2,8.941469E1,3.436499E1,8.4499435E1,4.9152536E0,5.5836903E1,2.866253E1,5.455149E1,1.2854143E0,5.3490973E0,2.3313433E1,2.3641682E1,3.0909807E1,1.9536434E1,3.7769997E0,2.21757E0,2.1424112E1,2.8278423E1,2.6313841E0,1.5929071E0,1.7943527E1,4.7459955E0,1.6678116E1,1.1876805E0,1.6755846E1],"tree_param":{"num_deleted":"0","num_feature":"81","num_nodes":"25","size_leaf_vector":"1"}},{"base_weights":[-5.039122E-2,3.1480974E-1,-5.0136447E-2,6.0664797E-1,-1.9156277E-2,2.783188E-1,9.1165584E-1,3.7614492E-1,-3.449025E-1,-4.7914002E-2,4.8725283E-1,5.0397713E-2,1.1355556E-1,-4.2098913E-2,6.1752486E-1,1.4877863E-1,-5.280303E-2,-1.2908925E-1,6.672303E-1,3.0626018E-2,-2.7547186E-2,-2.6575351E-2,7.9192436E-1,-4.8073623E-2,5.7048815E-1,-6.23368E-2,3.2948293E-2,4.424263E-2,1.4439936E-1,8.8955864E-2,4.7017027E-2,4.028307E-2,-2.7542735E-2,-9.104176E-3,2.6556913E-2,3.090758E-2,-2.9243413E-2],"categories":[0,3],"categories_nodes":[18],"categories_segments":[0],"categories_sizes":[2],"default_left":[0,0,0,0,0,0,0,0,0,0,0,0,0,0,0,0,0,0,1,0,0,0,0,0,0,0,0,0,0,0,0,0,0,0,0,0,0],"id":42,"left_children":[1,3,-1,5,7,9,11,13,15,-1,17,-1,19,-1,21,23,-1,25,27,-1,-1,-1,29,-1,31,-1,-1,-1,33,35,-1,-1,-1,-1,-1,-1,-1],"loss_changes":[4.2720005E1,8.774138E0,0E0,4.151781E0,5.565446E0,6.955029E0,1.4003677E0,6.2496157E0,8.862127E0,0E0,2.7366648E0,0E0,1.8441192E0,0E0,3.9871807E0,7.646432E0,0E0,6.296265E0,1.6220727E0,0E0,0E0,0E0,1.2452765E0,0E0,3.7496195E0,0E0,0E0,0E0,1.104448E0,2.0148003E0,0E0,0E0,0E0,0E0,0E0,0E0,0E0],"parents":[2147483647,0,0,1,1,3,3,4,4,5,5,6,6,7,7,8,8,10,10,12,12,14,14,15,15,17,17,18,18,22,22,24,24,28,28,29,29],"right_children":[2,4,-1,6,8,10,12,14,16,-1,18,-1,20,-1,22,24,-1,26,28,-1,-1,-1,30,-1,32,-1,-1,-1,34,36,-1,-1,-1,-1,-1,-1,-1],"split_conditions":[1E0,3.6666667E0,-5.0136447E-2,3.7142856E0,5E0,2.93E0,4E0,4E0,4.8461537E0,-4.7914002E-2,7.94E1,5.0397713E-2,5E0,-4.2098913E-2,3E0,5E0,-5.280303E-2,1.601E1,NaN,3.0626018E-2,-2.7547186E-2,-2.6575351E-2,5E0,-4.8073623E-2,3.908E1,-6.23368E-2,3.2948293E-2,4.424263E-2,5.41E1,5E0,4.7017027E-2,4.028307E-2,-2.7542735E-2,-9.104176E-3,2.6556913E-2,3.090758E-2,-2.9243413E-2],"split_indices":[1,77,0,73,72,4,66,79,68,0,5,0,26,0,4,23,0,7,3,0,0,0,57,0,6,0,0,0,6,14,0,0,0,0,0,0,0],"split_type":[0,0,0,0,0,0,0,0,0,0,0,0,0,0,0,0,0,0,1,0,0,0,0,0,0,0,0,0,0,0,0,0,0,0,0,0,0],"sum_hessian":[1.199521E2,8.711837E1,3.2833733E1,4.6346317E1,4.077205E1,2.3865885E1,2.248043E1,1.7985422E1,2.2786629E1,2.62859E0,2.1237295E1,1.9487196E1,2.993236E0,2.288842E0,1.5696581E1,1.3825803E1,8.960825E0,4.565812E0,1.6671482E1,1.9802735E0,1.0129627E0,1.5422721E0,1.4154308E1,3.2022812E0,1.0623522E1,1.7184013E0,2.847411E0,1.0822885E1,5.8485985E0,3.1095738E0,1.1044735E1,9.256957E0,1.3665642E0,3.1795154E0,2.6690829E0,2.0073621E0,1.1022116E0],"tree_param":{"num_deleted":"0","num_feature":"81","num_nodes":"37","size_leaf_vector":"1"}},{"base_weights":[-5.1038202E-2,3.0646294E-1,-4.991963E-2,5.9648776E-1,-2.0658018E-2,2.4179766E-1,8.73494E-1,-4.832685E-2,3.0939814E-1,-4.1765798E-2,4.1076276E-1,4.613601E-3,4.80058E-2,6.758944E-1,-1.5171824E-1,5.7653564E-1,-1.8778047E-1,1.8367237E-1,4.3450277E-2,3.5601258E-1,-5.0080534E-2,3.4401905E-2,1.5054371E-3,1.9962192E-2,-5.5466313E-2,3.8487777E-2,-4.0934756E-2,-4.0044118E-2,3.379759E-2],"categories":[0,0,2,3],"categories_nodes":[10,16],"categories_segments":[0,1],"categories_sizes":[1,3],"default_left":[0,0,0,0,0,0,0,0,0,0,1,0,0,0,0,0,1,0,0,0,0,0,0,0,0,0,0,0,0],"id":43,"left_children":[1,3,-1,5,7,9,11,-1,13,-1,15,-1,-1,17,19,21,23,25,-1,27,-1,-1,-1,-1,-1,-1,-1,-1,-1],"loss_changes":[4.0279205E1,8.310856E0,0E0,3.9756641E0,1.3394432E1,4.379603E0,1.3144321E0,0E0,5.545321E0,0E0,2.247421E0,0E0,0E0,1.2443676E0,6.894453E0,8.021202E-1,3.4469097E0,4.8937874E0,0E0,4.29474E0,0E0,0E0,0E0,0E0,0E0,0E0,0E0,0E0,0E0],"parents":[2147483647,0,0,1,1,3,3,4,4,5,5,6,6,8,8,10,10,13,13,14,14,15,15,16,16,17,17,19,19],"right_children":[2,4,-1,6,8,10,12,-1,14,-1,16,-1,-1,18,20,22,24,26,-1,28,-1,-1,-1,-1,-1,-1,-1,-1,-1],"split_conditions":[1E0,3E0,-4.991963E-2,3E0,3.21E0,2.93E0,3.107E1,-4.832685E-2,5E0,-4.1765798E-2,NaN,4.613601E-3,4.80058E-2,5E0,5E0,4.709E1,NaN,4.0384617E0,4.3450277E-2,3.03E0,-5.0080534E-2,3.4401905E-2,1.5054371E-3,1.9962192E-2,-5.5466313E-2,3.8487777E-2,-4.0934756E-2,-4.0044118E-2,3.379759E-2],"split_indices":[1,79,0,49,4,4,6,0,72,0,2,0,0,74,11,6,3,68,0,7,0,0,0,0,0,0,0,0,0],"split_type":[0,0,0,0,0,0,0,0,0,0,1,0,0,0,0,0,1,0,0,0,0,0,0,0,0,0,0,0,0],"sum_hessian":[1.1603985E2,8.466989E1,3.1369957E1,4.4739162E1,3.9930725E1,2.1041018E1,2.3698147E1,9.901587E0,3.002914E1,1.9840312E0,1.9056986E1,2.9111202E0,2.0787025E1,1.670885E1,1.3320289E1,1.5286789E1,3.7701964E0,5.760185E0,1.0948667E1,8.6092825E0,4.711006E0,1.2047038E1,3.2397516E0,2.570173E0,1.2000237E0,3.975312E0,1.7848729E0,1.2887484E0,7.320534E0],"tree_param":{"num_deleted":"0","num_feature":"81","num_nodes":"29","size_leaf_vector":"1"}},{"base_weights":[-5.106998E-2,2.9853457E-1,-4.9704798E-2,5.807396E-1,-2.6221318E-2,2.5710818E-1,8.8885486E-1,3.5398003E-1,-3.4108147E-1,-4.6141528E-2,4.5987937E-1,4.9424775E-2,1.0230854E-1,-4.0861588E-2,5.9568465E-1,1.350651E-1,-5.175638E-2,-1.4519115E-1,6.4074445E-1,3.0060574E-2,-2.7330263E-2,-2.537862E-2,7.665057E-1,-4.6618994E-2,5.48467E-1,-6.064678E-2,3.1541742E-2,4.3100942E-2,1.2892991E-1,7.291504E-2,4.5759305E-2,3.9048567E-2,-2.6455645E-2,-9.784517E-3,2.5992919E-2,2.9794032E-2,-2.8395472E-2],"categories":[0,3],"categories_nodes":[18],"categories_segments":[0],"categories_sizes":[2],"default_left":[0,0,0,0,0,0,0,0,0,0,0,0,0,0,0,0,0,0,1,0,0,0,0,0,0,0,0,0,0,0,0,0,0,0,0,0,0],"id":44,"left_children":[1,3,-1,5,7,9,11,13,15,-1,17,-1,19,-1,21,23,-1,25,27,-1,-1,-1,29,-1,31,-1,-1,-1,33,35,-1,-1,-1,-1,-1,-1,-1],"loss_changes":[3.801514E1,7.8270564E0,0E0,3.9390726E0,4.8992944E0,6.209405E0,1.3463516E0,5.7150187E0,7.9041133E0,0E0,2.6130433E0,0E0,1.7778736E0,0E0,3.5692182E0,6.880269E0,0E0,5.817323E0,1.5660095E0,0E0,0E0,0E0,1.1712341E0,0E0,3.4124558E0,0E0,0E0,0E0,1.0984498E0,1.846104E0,0E0,0E0,0E0,0E0,0E0,0E0,0E0],"parents":[2147483647,0,0,1,1,3,3,4,4,5,5,6,6,7,7,8,8,10,10,12,12,14,14,15,15,17,17,18,18,22,22,24,24,28,28,29,29],"right_children":[2,4,-1,6,8,10,12,14,16,-1,18,-1,20,-1,22,24,-1,26,28,-1,-1,-1,30,-1,32,-1,-1,-1,34,36,-1,-1,-1,-1,-1,-1,-1],"split_conditions":[1E0,3.6666667E0,-4.9704798E-2,3.7142856E0,5E0,2.93E0,4E0,4E0,4.8461537E0,-4.6141528E-2,7.94E1,4.9424775E-2,5E0,-4.0861588E-2,3E0,5E0,-5.175638E-2,1.601E1,NaN,3.0060574E-2,-2.7330263E-2,-2.537862E-2,5E0,-4.6618994E-2,3.908E1,-6.064678E-2,3.1541742E-2,4.3100942E-2,5.41E1,5E0,4.5759305E-2,3.9048567E-2,-2.6455645E-2,-9.784517E-3,2.5992919E-2,2.9794032E-2,-2.8395472E-2],"split_indices":[1,77,0,73,72,4,66,79,68,0,5,0,26,0,4,23,0,7,3,0,0,0,57,0,6,0,0,0,6,14,0,0,0,0,0,0,0],"split_type":[0,0,0,0,0,0,0,0,0,0,0,0,0,0,0,0,0,0,1,0,0,0,0,0,0,0,0,0,0,0,0,0,0,0,0,0,0],"sum_hessian":[1.124044E2,8.2433365E1,2.9971035E1,4.399087E1,3.8442497E1,2.2969313E1,2.1021559E1,1.6984268E1,2.145823E1,2.5366426E0,2.0432669E1,1.8090984E1,2.9305751E0,2.219358E0,1.476491E1,1.3110427E1,8.347801E0,4.4407563E0,1.5991913E1,1.9265431E0,1.0040321E0,1.4529868E0,1.3311923E1,3.0530858E0,1.0057342E1,1.7084585E0,2.7322977E0,1.0226778E1,5.765135E0,2.9755454E0,1.0336378E1,8.746269E0,1.3110722E0,3.1413696E0,2.6237652E0,1.9015303E0,1.0740151E0],"tree_param":{"num_deleted":"0","num_feature":"81","num_nodes":"37","size_leaf_vector":"1"}},{"base_weights":[-5.1756594E-2,2.903687E-1,-4.9491443E-2,3.702689E-1,-4.0815044E-2,6.2301606E-1,3.3993587E-2,-4.8870794E-2,7.7819574E-1,3.6763555E-1,-7.3518765E-1,8.522191E-1,-0E0,4.8780242E-1,-3.3876207E-2,-5.7061005E-2,1.0219595E-2,3.4083843E-1,4.864395E-2,-2.9313756E-2,2.8045012E-2,-3.1812426E-2,6.130502E-1,-4.38261E-2,4.008543E-2,9.881791E-3,4.2320084E-2],"categories":[2,3],"categories_nodes":[3],"categories_segments":[0],"categories_sizes":[2],"default_left":[0,0,0,1,0,0,0,0,0,0,0,0,0,0,0,0,0,0,0,0,0,0,0,0,0,0,0],"id":45,"left_children":[1,3,-1,5,-1,7,9,-1,11,13,15,17,19,21,-1,-1,-1,23,-1,-1,-1,-1,25,-1,-1,-1,-1],"loss_changes":[3.584785E1,7.463802E0,0E0,6.3526716E0,0E0,1.1693487E1,9.17204E0,0E0,2.1514912E0,3.5456023E0,4.612662E0,1.5211697E0,2.053213E0,3.8112555E0,0E0,0E0,0E0,6.091202E0,0E0,0E0,0E0,0E0,1.673687E0,0E0,0E0,0E0,0E0],"parents":[2147483647,0,0,1,1,3,3,5,5,6,6,8,8,9,9,10,10,11,11,12,12,13,13,17,17,22,22],"right_children":[2,4,-1,6,-1,8,10,-1,12,14,16,18,20,22,-1,-1,-1,24,-1,-1,-1,-1,26,-1,-1,-1,-1],"split_conditions":[1E0,1.806E1,-4.9491443E-2,NaN,-4.0815044E-2,3.2E1,5E0,-4.8870794E-2,4.875E0,5E0,5.6666665E0,7.98E1,6E0,2.93E0,-3.3876207E-2,-5.7061005E-2,1.0219595E-2,3E0,4.864395E-2,-2.9313756E-2,2.8045012E-2,-3.1812426E-2,3E0,-4.38261E-2,4.008543E-2,9.881791E-3,4.2320084E-2],"split_indices":[1,7,0,3,0,6,37,0,69,20,62,5,37,4,0,0,0,4,0,0,0,0,71,0,0,0,0],"split_type":[0,0,0,1,0,0,0,0,0,0,0,0,0,0,0,0,0,0,0,0,0,0,0,0,0,0,0],"sum_hessian":[1.0878275E2,8.014834E1,2.863441E1,7.573784E1,4.4105024E0,4.22061E1,3.353174E1,3.0027902E0,3.9203312E1,2.4069057E1,9.462679E0,3.5443348E1,3.759961E0,2.2399477E1,1.6695805E0,6.605834E0,2.8568451E0,8.074581E0,2.7368769E1,1.6278462E0,2.1321144E0,1.5342484E0,2.0865229E1,1.758858E0,6.315724E0,8.720657E0,1.2144571E1],"tree_param":{"num_deleted":"0","num_feature":"81","num_nodes":"27","size_leaf_vector":"1"}},{"base_weights":[-5.2772373E-2,2.817094E-1,-4.9279094E-2,3.6034447E-1,-4.029041E-2,6.109587E-1,3.0397244E-2,-4.7901317E-2,7.655641E-1,2.7259743E-1,-4.9074512E-2,8.395044E-1,-0E0,4.736367E-1,-4.3320474E-1,3.2930332E-1,4.805297E-2,-2.8831666E-2,2.7498215E-2,-3.1264815E-2,5.974112E-1,-5.1621366E-2,2.9547459E-2,-4.2954315E-2,3.932665E-2,9.497733E-3,4.155688E-2],"categories":[2,3],"categories_nodes":[3],"categories_segments":[0],"categories_sizes":[2],"default_left":[0,0,0,1,0,0,0,0,0,0,0,0,0,0,0,0,0,0,0,0,0,0,0,0,0,0,0],"id":46,"left_children":[1,3,-1,5,-1,7,9,-1,11,13,-1,15,17,19,21,23,-1,-1,-1,-1,25,-1,-1,-1,-1,-1,-1],"loss_changes":[3.3779545E1,7.0272093E0,0E0,6.015399E0,0E0,1.1083275E1,8.51622E0,0E0,2.0513039E0,4.3386397E0,0E0,1.4825745E0,1.9563969E0,3.6168113E0,5.0088706E0,5.784774E0,0E0,0E0,0E0,0E0,1.6142206E0,0E0,0E0,0E0,0E0,0E0,0E0],"parents":[2147483647,0,0,1,1,3,3,5,5,6,6,8,8,9,9,11,11,12,12,13,13,14,14,15,15,20,20],"right_children":[2,4,-1,6,-1,8,10,-1,12,14,-1,16,18,20,22,24,-1,-1,-1,-1,26,-1,-1,-1,-1,-1,-1],"split_conditions":[1E0,1.806E1,-4.9279094E-2,NaN,-4.029041E-2,3.2E1,5E0,-4.7901317E-2,4.875E0,5E0,-4.9074512E-2,7.98E1,6E0,2.93E0,6E0,3E0,4.805297E-2,-2.8831666E-2,2.7498215E-2,-3.1264815E-2,3E0,-5.1621366E-2,2.9547459E-2,-4.2954315E-2,3.932665E-2,9.497733E-3,4.155688E-2],"split_indices":[1,7,0,3,0,6,20,0,69,37,0,5,37,4,11,4,0,0,0,0,71,0,0,0,0,0,0],"split_type":[0,0,0,1,0,0,0,0,0,0,0,0,0,0,0,0,0,0,0,0,0,0,0,0,0,0,0],"sum_hessian":[1.05338745E2,7.798117E1,2.7357574E1,7.3716644E1,4.264526E0,4.0859306E1,3.2857338E1,2.9373527E0,3.7921955E1,2.7447876E1,5.4094634E0,3.4236206E1,3.6857483E0,2.195861E1,5.489266E0,7.875118E0,2.6361088E1,1.5940732E0,2.091675E0,1.5056869E0,2.0452923E1,3.6106913E0,1.8785745E0,1.7309086E0,6.1442094E0,8.671455E0,1.1781468E1],"tree_param":{"num_deleted":"0","num_feature":"81","num_nodes":"27","size_leaf_vector":"1"}},{"base_weights":[-5.3732153E-2,2.7352902E-1,-4.9067285E-2,5.439666E-1,-3.7837017E-2,2.2521956E-1,8.5986215E-1,3.3361167E-1,-3.4787256E-1,-4.3855574E-2,4.2167157E-1,4.815337E-2,3.8251672E-3,-3.847696E-2,5.6968224E-1,1.0779212E-1,-5.0609518E-2,-1.6702452E-1,6.035033E-1,-2.4196422E-2,7.3995245E-1,-4.4414125E-2,5.1578003E-1,-5.7928063E-2,2.9720848E-2,4.1415095E-2,1.1341964E-1,5.82198E-2,4.4257738E-2,3.712313E-2,-2.4526557E-2,-1.0281442E-2,2.551294E-2,2.7978359E-2,-2.6191164E-2],"categories":[0,3],"categories_nodes":[18],"categories_segments":[0],"categories_sizes":[2],"default_left":[0,0,0,0,0,0,0,0,0,0,0,0,0,0,0,0,0,0,1,0,0,0,0,0,0,0,0,0,0,0,0,0,0,0,0],"id":47,"left_children":[1,3,-1,5,7,9,11,13,15,-1,17,-1,-1,-1,19,21,-1,23,25,-1,27,-1,29,-1,-1,-1,31,33,-1,-1,-1,-1,-1,-1,-1],"loss_changes":[3.1844252E1,6.642135E0,0E0,3.691306E0,4.3594513E0,5.3016615E0,1.2758856E0,4.9006634E0,6.691581E0,0E0,2.4241276E0,0E0,0E0,0E0,3.1722164E0,5.8878818E0,0E0,5.139538E0,1.434021E0,0E0,1.0327196E0,0E0,2.892911E0,0E0,0E0,0E0,1.0807097E0,1.5439588E0,0E0,0E0,0E0,0E0,0E0,0E0,0E0],"parents":[2147483647,0,0,1,1,3,3,4,4,5,5,6,6,7,7,8,8,10,10,14,14,15,15,17,17,18,18,20,20,22,22,26,26,27,27],"right_children":[2,4,-1,6,8,10,12,14,16,-1,18,-1,-1,-1,20,22,-1,24,26,-1,28,-1,30,-1,-1,-1,32,34,-1,-1,-1,-1,-1,-1,-1],"split_conditions":[1E0,3.6666667E0,-4.9067285E-2,3.7142856E0,5E0,2.93E0,4E0,4E0,4.8461537E0,-4.3855574E-2,7.94E1,4.815337E-2,3.8251672E-3,-3.847696E-2,3E0,5E0,-5.0609518E-2,1.601E1,NaN,-2.4196422E-2,5E0,-4.4414125E-2,3.908E1,-5.7928063E-2,2.9720848E-2,4.1415095E-2,5.41E1,5E0,4.4257738E-2,3.712313E-2,-2.4526557E-2,-1.0281442E-2,2.551294E-2,2.7978359E-2,-2.6191164E-2],"split_indices":[1,77,0,73,72,4,66,79,68,0,5,0,0,0,4,23,0,7,3,0,57,0,6,0,0,0,6,14,0,0,0,0,0,0,0],"split_type":[0,0,0,0,0,0,0,0,0,0,0,0,0,0,0,0,0,0,1,0,0,0,0,0,0,0,0,0,0,0,0,0,0,0,0],"sum_hessian":[1.01960365E2,7.582224E1,2.6138119E1,4.0508034E1,3.531421E1,2.1622723E1,1.8885311E1,1.5655814E1,1.9658398E1,2.4230394E0,1.9199684E1,1.6151499E1,2.7338119E0,2.0751173E0,1.3580697E1,1.2058295E1,7.6001015E0,4.2303734E0,1.496931E1,1.3647695E0,1.2215927E1,2.898212E0,9.160084E0,1.6969876E0,2.5333858E0,9.321033E0,5.6482778E0,2.754821E0,9.461106E0,7.9462733E0,1.2138102E0,3.1156716E0,2.5326064E0,1.7366955E0,1.0181255E0],"tree_param":{"num_deleted":"0","num_feature":"81","num_nodes":"35","size_leaf_vector":"1"}},{"base_weights":[-5.4259386E-2,2.657261E-1,-4.8855577E-2,3.4286255E-1,-3.945866E-2,5.894635E-1,2.3645718E-2,-4.629213E-2,7.441996E-1,3.3832538E-1,-7.034387E-1,8.17724E-1,-0E0,4.446585E-1,-3.888799E-2,-5.474464E-2,9.739334E-3,3.0764642E-1,4.7066327E-2,-2.7828285E-2,2.6447818E-2,-3.122221E-2,5.7336485E-1,-4.122951E-2,3.8025837E-2,3.4274515E-2,-3.0779496E-2],"categories":[2,3],"categories_nodes":[3],"categories_segments":[0],"categories_sizes":[2],"default_left":[0,0,0,1,0,0,0,0,0,0,0,0,0,0,0,0,0,0,0,0,0,0,0,0,0,0,0],"id":48,"left_children":[1,3,-1,5,-1,7,9,-1,11,13,15,17,19,21,-1,-1,-1,23,-1,-1,-1,-1,25,-1,-1,-1,-1],"loss_changes":[3.0042534E1,6.3344398E0,0E0,5.4213924E0,0E0,1.00971365E1,7.689041E0,0E0,1.8776836E0,3.1865735E0,4.0235577E0,1.4223099E0,1.7633426E0,3.5761771E0,0E0,0E0,0E0,5.248188E0,0E0,0E0,0E0,0E0,3.3761225E0,0E0,0E0,0E0,0E0],"parents":[2147483647,0,0,1,1,3,3,5,5,6,6,8,8,9,9,10,10,11,11,12,12,13,13,17,17,22,22],"right_children":[2,4,-1,6,-1,8,10,-1,12,14,16,18,20,22,-1,-1,-1,24,-1,-1,-1,-1,26,-1,-1,-1,-1],"split_conditions":[1E0,1.806E1,-4.8855577E-2,NaN,-3.945866E-2,3.2E1,5E0,-4.629213E-2,4.875E0,1.109E1,5.6666665E0,7.98E1,6E0,2.93E0,-3.888799E-2,-5.474464E-2,9.739334E-3,3E0,4.7066327E-2,-2.7828285E-2,2.6447818E-2,-3.122221E-2,5E0,-4.122951E-2,3.8025837E-2,3.4274515E-2,-3.0779496E-2],"split_indices":[1,7,0,3,0,6,37,0,69,7,62,5,49,4,0,0,0,4,0,0,0,0,67,0,0,0,0],"split_type":[0,0,0,1,0,0,0,0,0,0,0,0,0,0,0,0,0,0,0,0,0,0,0,0,0,0,0],"sum_hessian":[9.878456E1,7.381089E1,2.4973671E1,6.978852E1,4.0223694E0,3.8333656E1,3.1454866E1,2.82491E0,3.5508747E1,2.265992E1,8.794946E0,3.2003784E1,3.504962E0,2.1579918E1,1.0800033E0,6.1286616E0,2.6662836E0,7.4877057E0,2.4516079E1,1.5255642E0,1.9793978E0,1.592742E0,1.9987175E1,1.6884093E0,5.7992964E0,1.8940554E1,1.0466223E0],"tree_param":{"num_deleted":"0","num_feature":"81","num_nodes":"27","size_leaf_vector":"1"}},{"base_weights":[-5.629547E-2,2.5640154E-1,-4.864354E-2,3.323693E-1,-3.8942434E-2,5.7763875E-1,1.7473893E-2,-4.5399364E-2,7.317428E-1,2.4877587E-1,-4.740232E-2,8.051531E-1,-0E0,4.3811825E-1,-4.075786E-1,2.9671788E-1,4.6479635E-2,-2.7373573E-2,2.5932824E-2,-2.9479116E-2,5.574525E-1,-4.905061E-2,2.8213039E-2,-4.042849E-2,3.72847E-2,7.773763E-3,3.989633E-2],"categories":[2,3],"categories_nodes":[3],"categories_segments":[0],"categories_sizes":[2],"default_left":[0,0,0,1,0,0,0,0,0,0,0,0,0,0,0,0,0,0,0,0,0,0,0,0,0,0,0],"id":49,"left_children":[1,3,-1,5,-1,7,9,-1,11,13,-1,15,17,19,21,23,-1,-1,-1,-1,25,-1,-1,-1,-1,-1,-1],"loss_changes":[2.8262184E1,5.955733E0,0E0,5.1787157E0,0E0,9.573803E0,7.2685E0,0E0,1.7897644E0,3.5890255E0,0E0,1.3847485E0,1.6817864E0,3.0849476E0,4.3638034E0,4.985251E0,0E0,0E0,0E0,0E0,1.5838895E0,0E0,0E0,0E0,0E0,0E0,0E0],"parents":[2147483647,0,0,1,1,3,3,5,5,6,6,8,8,9,9,11,11,12,12,13,13,14,14,15,15,20,20],"right_children":[2,4,-1,6,-1,8,10,-1,12,14,-1,16,18,20,22,24,-1,-1,-1,-1,26,-1,-1,-1,-1,-1,-1],"split_conditions":[1E0,1.806E1,-4.864354E-2,NaN,-3.8942434E-2,3.2E1,5E0,-4.5399364E-2,4.875E0,5E0,-4.740232E-2,7.98E1,6E0,2.93E0,6E0,3E0,4.6479635E-2,-2.7373573E-2,2.5932824E-2,-2.9479116E-2,3E0,-4.905061E-2,2.8213039E-2,-4.042849E-2,3.72847E-2,7.773763E-3,3.989633E-2],"split_indices":[1,7,0,3,0,6,20,0,69,37,0,5,49,4,11,4,0,0,0,0,71,0,0,0,0,0,0],"split_type":[0,0,0,1,0,0,0,0,0,0,0,0,0,0,0,0,0,0,0,0,0,0,0,0,0,0,0],"sum_hessian":[9.564553E1,7.178357E1,2.3861965E1,6.789177E1,3.8917978E0,3.71326E1,3.075917E1,2.7626069E0,3.436999E1,2.5772024E1,4.9871454E0,3.0931572E1,3.4384189E0,2.062013E1,5.151895E0,7.3088045E0,2.3622768E1,1.4949061E0,1.9435128E0,1.414846E0,1.9205284E1,3.3944478E0,1.7574471E0,1.6612281E0,5.6475763E0,8.348197E0,1.0857087E1],"tree_param":{"num_deleted":"0","num_feature":"81","num_nodes":"27","size_leaf_vector":"1"}},{"base_weights":[-5.7269342E-2,2.4849027E-1,-4.8430774E-2,4.2682284E-1,-1.8451098E-1,5.4335666E-1,-2.0019133E-1,3.7981167E-1,-6.664745E-1,1.7906682E-1,8.3940727E-1,3.1671107E-1,-4.7799557E-2,-3.3127356E-2,3.658482E-2,-5.0057102E-2,1.4298524E-1,-4.0071215E-2,3.4745654E-1,4.608105E-2,3.7730096E-3,-2.6964283E-2,3.669358E-2,2.9176472E-2,-2.0878123E-2,5.079283E-1,-2.6777577E-1,-2.1565525E-2,2.3529878E-2,3.1599235E-2,-0E0,1.588E-2,-5.177408E-2],"categories":[0,0,2,3],"categories_nodes":[18,26],"categories_segments":[0,1],"categories_sizes":[1,3],"default_left":[0,0,0,0,0,0,0,0,0,0,0,0,0,0,0,0,0,0,1,0,0,0,0,0,0,0,1,0,0,0,0,0,0],"id":50,"left_children":[1,3,-1,5,7,9,11,13,15,17,19,21,-1,-1,-1,-1,23,-1,25,-1,27,-1,-1,-1,-1,29,31,-1,-1,-1,-1,-1,-1],"loss_changes":[2.6647217E1,5.649402E0,0E0,3.9589968E0,6.1554947E0,4.2816534E0,3.8954892E0,4.41046E0,3.679438E0,3.8018527E0,1.3751717E0,2.6307847E0,0E0,0E0,0E0,0E0,1.4383963E0,0E0,2.1580904E0,0E0,1.0003678E0,0E0,0E0,0E0,0E0,1.0192652E0,2.6291082E0,0E0,0E0,0E0,0E0,0E0,0E0],"parents":[2147483647,0,0,1,1,3,3,4,4,5,5,6,6,7,7,8,8,9,9,10,10,11,11,16,16,18,18,20,20,25,25,26,26],"right_children":[2,4,-1,6,8,10,12,14,16,18,20,22,-1,-1,-1,-1,24,-1,26,-1,28,-1,-1,-1,-1,30,32,-1,-1,-1,-1,-1,-1],"split_conditions":[1E0,5E0,-4.8430774E-2,4.3333335E0,5E0,3.7142856E0,1.08E0,5E0,6E0,2.93E0,4.75E0,3.204E1,-4.7799557E-2,-3.3127356E-2,3.658482E-2,-5.0057102E-2,6E0,-4.0071215E-2,NaN,4.608105E-2,6.09E0,-2.6964283E-2,3.669358E-2,2.9176472E-2,-2.0878123E-2,4.709E1,NaN,-2.1565525E-2,2.3529878E-2,3.1599235E-2,-0E0,1.588E-2,-5.177408E-2],"split_indices":[1,51,0,74,72,73,7,80,18,4,69,6,0,0,0,0,9,0,2,0,7,0,0,0,0,6,3,0,0,0,0,0,0],"split_type":[0,0,0,0,0,0,0,0,0,0,0,0,0,0,0,0,0,0,1,0,0,0,0,0,0,0,1,0,0,0,0,0,0],"sum_hessian":[9.265294E1,6.9852165E1,2.2800777E1,4.989712E1,1.9955044E1,4.2553776E1,7.3433447E0,9.075235E0,1.0879808E1,2.0356117E1,2.2197659E1,4.5957017E0,2.7476432E0,1.8326128E0,7.242623E0,7.7064543E0,3.1733541E0,2.077211E0,1.8278906E1,1.9819883E1,2.3777757E0,1.1895536E0,3.406148E0,1.9979079E0,1.1754463E0,1.4992706E1,3.2861998E0,1.0027592E0,1.3750166E0,1.1793762E1,3.1989436E0,2.0955625E0,1.1906374E0],"tree_param":{"num_deleted":"0","num_feature":"81","num_nodes":"33","size_leaf_vector":"1"}},{"base_weights":[-5.7975005E-2,2.4074295E-1,-4.8216887E-2,3.1511167E-1,-3.807437E-2,-4.089637E-2,5.152803E-1,-6.790854E-1,2.7989036E-1,7.5065845E-1,-1.2716621E-1,-5.0724637E-2,1.1213343E-2,4.5077074E-1,-3.3244506E-2,8.3083653E-1,-0E0,-5.5066343E-2,2.6779154E-1,3.770388E-2,-1.03468366E-1,3.4838262E-1,4.726657E-2,-2.6077846E-2,2.4951668E-2,5.364164E-1,-3.7844222E-2,-6.039684E-2,2.474387E-2,-3.525026E-2,3.6035407E-2,2.6953185E-3,3.9787345E-2],"categories":[2,3],"categories_nodes":[6],"categories_segments":[0],"categories_sizes":[2],"default_left":[0,0,0,0,0,0,1,0,0,0,0,0,0,0,0,0,0,0,0,0,0,0,0,0,0,0,0,0,0,0,0,0,0],"id":51,"left_children":[1,3,-1,5,-1,7,9,11,13,15,17,-1,-1,19,-1,21,23,-1,25,-1,27,29,-1,-1,-1,31,-1,-1,-1,-1,-1,-1,-1],"loss_changes":[2.5134768E1,5.3541136E0,0E0,4.822252E0,0E0,5.318487E0,6.7102394E0,3.1375098E0,3.0360432E0,1.7644558E0,5.268972E0,0E0,0E0,2.8170233E0,0E0,8.314438E-1,1.4929507E0,0E0,3.0672185E0,0E0,5.014354E0,3.7130208E0,0E0,0E0,0E0,7.9148984E-1,0E0,0E0,0E0,0E0,0E0,0E0,0E0],"parents":[2147483647,0,0,1,1,3,3,5,5,6,6,7,7,8,8,9,9,10,10,13,13,15,15,16,16,18,18,20,20,21,21,25,25],"right_children":[2,4,-1,6,-1,8,10,12,14,16,18,-1,-1,20,-1,22,24,-1,26,-1,28,30,-1,-1,-1,32,-1,-1,-1,-1,-1,-1,-1],"split_conditions":[1E0,1.806E1,-4.8216887E-2,3.207E1,-3.807437E-2,3.21E0,NaN,3.108E1,5E0,4.875E0,4.706E1,-5.0724637E-2,1.1213343E-2,1.03E0,-3.3244506E-2,7.98E1,6E0,-5.5066343E-2,1.109E1,3.770388E-2,4.6153846E0,3E0,4.726657E-2,-2.6077846E-2,2.4951668E-2,1.011E1,-3.7844222E-2,-6.039684E-2,2.474387E-2,-3.525026E-2,3.6035407E-2,2.6953185E-3,3.9787345E-2],"split_indices":[1,7,0,6,0,4,3,6,75,69,6,0,0,7,0,5,49,0,7,0,68,4,0,0,0,7,0,0,0,0,0,0,0],"split_type":[0,0,0,0,0,0,1,0,0,0,0,0,0,0,0,0,0,0,0,0,0,0,0,0,0,0,0,0,0,0,0,0,0],"sum_hessian":[8.984496E1,6.805698E1,2.1787985E1,6.438578E1,3.6712005E0,2.3080984E1,4.1304794E1,7.514476E0,1.5566508E1,3.0360115E1,1.0944679E1,5.5695176E0,1.9449583E0,1.3959839E1,1.6066699E0,2.710967E1,3.2504444E0,2.694964E0,8.249716E0,9.022596E0,4.937242E0,6.587689E0,2.052198E1,1.3989717E0,1.8514727E0,7.2014256E0,1.04829E0,1.4342077E0,3.5030346E0,1.253348E0,5.334341E0,3.3822565E0,3.8191688E0],"tree_param":{"num_deleted":"0","num_feature":"81","num_nodes":"33","size_leaf_vector":"1"}},{"base_weights":[-5.913699E-2,2.3283657E-1,-4.80015E-2,4.8751172E-1,-5.4125104E-2,1.4632155E-1,7.8974694E-1,-4.5460086E-2,2.4405178E-1,-3.507597E-2,2.9490688E-1,4.4397157E-2,6.4337364E-4,5.9265256E-1,-1.8089704E-1,4.6400166E-1,-2.680092E-1,9.7503655E-2,3.945155E-2,2.4746314E-1,-4.5999125E-2,5.7589805E-1,-0E0,1.4857094E-2,-4.937732E-2,3.3483952E-2,-3.5284787E-2,-3.0151857E-2,2.696733E-2,8.6923287E-4,3.4391016E-2],"categories":[0,0,2,3],"categories_nodes":[10,16],"categories_segments":[0,1],"categories_sizes":[1,3],"default_left":[0,0,0,0,0,0,0,0,0,0,1,0,0,0,0,0,1,0,0,0,0,0,0,0,0,0,0,0,0,0,0],"id":52,"left_children":[1,3,-1,5,7,9,11,-1,13,-1,15,-1,-1,17,19,21,23,25,-1,27,-1,29,-1,-1,-1,-1,-1,-1,-1,-1,-1],"loss_changes":[2.369283E1,5.0743093E0,0E0,3.3697186E0,8.704834E0,2.55006E0,1.1795568E0,0E0,3.9096627E0,0E0,1.8506573E0,0E0,0E0,1.0663905E0,4.190837E0,6.5795803E-1,2.3473117E0,3.2611568E0,0E0,2.4376416E0,0E0,5.048721E-1,0E0,0E0,0E0,0E0,0E0,0E0,0E0,0E0,0E0],"parents":[2147483647,0,0,1,1,3,3,4,4,5,5,6,6,8,8,10,10,13,13,14,14,15,15,16,16,17,17,19,19,21,21],"right_children":[2,4,-1,6,8,10,12,-1,14,-1,16,-1,-1,18,20,22,24,26,-1,28,-1,30,-1,-1,-1,-1,-1,-1,-1,-1,-1],"split_conditions":[1E0,3E0,-4.80015E-2,3E0,3.21E0,2.93E0,4.3333335E0,-4.5460086E-2,5E0,-3.507597E-2,NaN,4.4397157E-2,6.4337364E-4,5E0,4.8461537E0,4.709E1,NaN,4.0384617E0,3.945155E-2,3.03E0,-4.5999125E-2,3.207E1,-0E0,1.4857094E-2,-4.937732E-2,3.3483952E-2,-3.5284787E-2,-3.0151857E-2,2.696733E-2,8.6923287E-4,3.4391016E-2],"split_indices":[1,79,0,49,4,4,74,0,72,0,2,0,0,74,68,6,3,68,0,7,0,6,0,0,0,0,0,0,0,0,0],"split_type":[0,0,0,0,0,0,0,0,0,0,1,0,0,0,0,0,1,0,0,0,0,0,0,0,0,0,0,0,0,0,0],"sum_hessian":[8.707075E1,6.624924E1,2.0821512E1,3.509788E1,3.1151358E1,1.7746443E1,1.7351439E1,7.6087646E0,2.3542593E1,1.7017752E0,1.6044668E1,1.4960017E1,2.3914208E0,1.2985292E1,1.0557301E1,1.2848777E1,3.1958907E0,4.580273E0,8.40502E0,6.9958506E0,3.56145E0,9.886123E0,2.9626544E0,2.0063672E0,1.1895235E0,2.9779325E0,1.6023407E0,1.2281606E0,5.76769E0,2.264365E0,7.6217575E0],"tree_param":{"num_deleted":"0","num_feature":"81","num_nodes":"31","size_leaf_vector":"1"}},{"base_weights":[-5.89647E-2,2.2619659E-1,-4.7784258E-2,2.9966977E-1,-3.7384216E-2,-4.8215177E-2,4.972698E-1,-6.636805E-1,2.5867078E-1,7.3297226E-1,-1.2903035E-1,-4.966141E-2,1.0445484E-2,4.2752945E-1,-3.2279726E-2,8.1193256E-1,-0E0,-5.3560555E-2,2.5464764E-1,3.6668543E-2,-1.20077096E-1,3.2374138E-1,4.650594E-2,-2.4989655E-2,2.4076689E-2,5.205128E-1,-3.698696E-2,-5.8964547E-2,2.3635793E-2,-3.442241E-2,3.480377E-2,2.1920544E-3,3.898753E-2],"categories":[2,3],"categories_nodes":[6],"categories_segments":[0],"categories_sizes":[2],"default_left":[0,0,0,0,0,0,1,0,0,0,0,0,0,0,0,0,0,0,0,0,0,0,0,0,0,0,0,0,0,0,0,0,0],"id":53,"left_children":[1,3,-1,5,-1,7,9,11,13,15,17,-1,-1,19,-1,21,23,-1,25,-1,27,29,-1,-1,-1,31,-1,-1,-1,-1,-1,-1,-1],"loss_changes":[2.238934E1,4.882646E0,0E0,4.4315453E0,0E0,4.713742E0,6.227582E0,2.8619835E0,2.758864E0,1.5995369E0,4.8141847E0,0E0,0E0,2.709763E0,0E0,8.515167E-1,1.342151E0,0E0,2.862278E0,0E0,4.650706E0,3.4412246E0,0E0,0E0,0E0,7.6488256E-1,0E0,0E0,0E0,0E0,0E0,0E0,0E0],"parents":[2147483647,0,0,1,1,3,3,5,5,6,6,7,7,8,8,9,9,10,10,13,13,15,15,16,16,18,18,20,20,21,21,25,25],"right_children":[2,4,-1,6,-1,8,10,12,14,16,18,-1,-1,20,-1,22,24,-1,26,-1,28,30,-1,-1,-1,32,-1,-1,-1,-1,-1,-1,-1],"split_conditions":[1E0,1.806E1,-4.7784258E-2,3.207E1,-3.7384216E-2,3.21E0,NaN,3.108E1,5E0,4.875E0,4.706E1,-4.966141E-2,1.0445484E-2,1.03E0,-3.2279726E-2,7.98E1,6E0,-5.3560555E-2,1.109E1,3.6668543E-2,4.6153846E0,3E0,4.650594E-2,-2.4989655E-2,2.4076689E-2,1.011E1,-3.698696E-2,-5.8964547E-2,2.3635793E-2,-3.442241E-2,3.480377E-2,2.1920544E-3,3.898753E-2],"split_indices":[1,7,0,6,0,4,3,6,75,69,6,0,0,7,0,5,37,0,7,0,68,4,0,0,0,7,0,0,0,0,0,0,0],"split_type":[0,0,0,0,0,0,1,0,0,0,0,0,0,0,0,0,0,0,0,0,0,0,0,0,0,0,0,0,0,0,0,0,0],"sum_hessian":[8.453763E1,6.463826E1,1.9899372E1,6.114716E1,3.4910972E0,2.203436E1,3.91128E1,7.118809E0,